{"metadata":{"description":"Quantized MLP for zkSNARK proof-of-inference","pipeline":"ONNX -> JSON -> R1CS circuit","scale":1000,"input_size":784,"hidden_size":128,"output_size":10},"graph":[{"op_type":"Reshape","inputs":["input","val_3"],"outputs":["view"]},{"op_type":"Gemm","inputs":["view","fc1.weight","fc1.bias"],"outputs":["linear"],"weight_name":"fc1.weight","weight_shape":[128,784],"bias_name":"fc1.bias","bias_shape":[128]},{"op_type":"Mul","inputs":["linear","linear"],"outputs":["mul"],"description":"Square activation (x * x)"},{"op_type":"Gemm","inputs":["mul","fc2.weight","fc2.bias"],"outputs":["output"],"weight_name":"fc2.weight","weight_shape":[10,128],"bias_name":"fc2.bias","bias_shape":[10]}],"quantized_weights":{"W1":[[3,15,-19,21,21,2,-25,35,-27,15,6,5,25,41,96,51,-32,31,20,35,19,-18,6,32,13,-33,-20,-16,-16,24,23,33,4,-16,42,47,33,74,84,95,108,25,30,164,167,115,59,132,182,29,55,64,22,27,3,21,-25,3,22,1,21,55,70,145,176,255,292,331,325,323,217,274,272,262,191,163,113,88,56,39,128,33,3,9,7,-4,89,25,-43,67,97,65,66,174,82,212,207,93,59,99,120,42,58,-25,-144,-39,93,165,94,-48,39,18,-22,12,106,-131,-28,12,73,63,35,121,150,149,81,-7,-8,22,76,102,76,110,12,-89,-31,-69,-249,-182,65,93,8,-25,84,-49,-52,-123,-130,-107,-39,2,58,9,-73,-39,-101,-64,-17,2,15,84,99,47,3,12,-92,-212,6,46,13,76,-8,93,27,-19,-26,46,-46,-110,-50,-20,-82,-154,-107,-52,59,24,6,-47,-57,-25,65,-103,-119,-143,-39,54,2,100,-6,52,65,-91,-42,15,-86,-70,-49,5,-70,-51,26,23,18,46,-12,-30,-109,-65,52,-3,-162,-163,-100,37,127,67,24,20,67,-52,53,6,-94,-32,-18,-23,-51,-34,138,122,90,87,18,-40,-91,-34,-37,-82,-230,-244,-86,-6,12,-52,13,51,17,-29,5,76,-28,-57,29,-123,-106,-32,33,81,134,84,55,13,-7,-23,-31,-97,-88,-180,-116,-95,23,83,-8,63,-40,-24,25,-41,-20,-53,-19,-102,-96,-90,42,85,65,91,18,36,101,47,-32,-60,76,-153,-67,-15,41,194,-5,113,-54,9,51,37,7,-2,-108,-142,-173,-79,101,77,17,13,59,88,149,138,30,-22,92,-108,-212,12,-19,93,3,-11,-55,-107,-16,69,23,61,-101,-122,-147,-40,26,-59,-44,53,14,1,120,124,61,-42,76,-118,-62,32,61,37,5,78,-12,-20,56,-3,29,57,-88,-51,-68,5,8,-44,-67,-53,-47,-45,40,67,21,-8,1,42,33,81,19,23,124,102,-8,12,-15,20,93,104,29,63,25,-28,38,-46,-89,-127,-32,-82,-35,33,71,-14,76,55,248,98,40,-4,120,138,-5,24,-29,-38,31,106,59,-10,-57,10,20,-65,-47,-36,-13,-18,-63,6,-3,16,83,52,131,144,-29,11,48,84,-25,104,-47,-6,25,69,40,22,-104,-95,-1,-37,40,-3,-72,-7,-52,38,24,36,115,166,135,105,-17,-1,-16,0,-21,34,30,46,73,91,59,-5,-59,7,25,38,17,-81,-79,10,21,33,51,-26,-45,237,18,110,-135,-19,-117,-85,-51,75,-16,55,101,121,46,-51,-31,-4,115,88,25,-6,-1,-72,-29,-7,-34,-4,45,374,85,142,16,-11,-27,-93,-17,59,-11,34,59,48,31,18,26,65,150,91,112,101,72,52,52,47,30,103,-70,255,185,124,-7,-60,56,53,47,-64,-89,25,71,125,90,80,111,44,159,124,183,164,168,111,67,79,171,139,66,217,139,33,15,-11,104,188,32,-167,-32,48,46,57,127,19,15,6,95,115,181,146,98,125,77,84,140,129,121,91,146,38,57,-18,21,143,-32,23,35,76,59,99,94,55,-23,-7,8,24,39,-5,-36,-1,27,-68,47,11,11,47,39,-5,14,34,45,-7,-202,-64,-14,-7,128,136,94,72,41,-35,-41,-60,-47,-179,-162,-178,-111,-131,-50,-10,-100,11,48,-9,35,35,-86,-184,-217,-243,-150,-201,-97,58,-43,-44,-139,-136,-123,-191,-250,-273,-193,-137,-81,-197,-193,-79,109,40,24,29,32,33,43,51,33,-86,-231,-341,-295,-277,-378,-343,-278,-254,-190,-242,-149,-114,-195,-65,-56,-152,-243,-215,11,50,21,5,20,-14,0,-36,102,90,28,48,-239,-187,-174,-189,-114,101,114,97,-54,-8,-80,56,6,-91,-123,-49,-29,-32,9,-26,31,8,-29,16,-4,-7,57,41,20,54,105,31,54,101,113,77,78,106,13,-10,-3,-9,-69,-50,7,19,-8,2],[12,8,-11,22,17,-17,-3,-26,29,25,31,35,34,-71,-96,-42,-30,-18,-9,30,-31,34,-29,-14,12,5,-32,4,-17,-17,-2,-1,18,16,18,24,-15,24,-1,60,94,14,-9,83,7,-20,-23,134,149,-8,85,32,35,6,28,11,-36,35,7,54,93,-36,54,56,-27,-93,-64,-29,13,69,98,153,140,82,146,107,94,-73,-11,-43,39,53,12,15,1,4,-95,10,-44,-104,-95,-48,-25,-155,-121,-114,3,105,141,144,168,128,131,122,131,159,169,23,-91,-77,-91,-16,-10,-5,-138,-163,-160,-111,-149,-123,-45,-118,-111,-73,-28,-12,70,33,96,43,-109,-55,42,120,126,74,64,71,53,144,16,5,-125,-111,-29,10,-29,-33,-24,-47,-123,-153,-135,-103,-102,-16,-56,19,-47,-21,-57,-16,46,62,-32,-91,-42,92,16,-93,20,23,35,-14,-61,-14,-91,-175,-230,-138,-238,-199,-213,-229,-108,-69,-47,-19,-34,-81,37,-14,-134,24,55,11,-10,-81,71,13,-57,-53,-54,-41,-153,-102,-126,-198,-160,-265,-277,-127,-116,-42,-3,-22,-11,-4,-25,74,55,89,26,50,144,69,-26,-16,-131,-33,2,-8,-121,-31,-58,-27,-70,-134,-172,-18,40,24,41,10,24,24,-86,98,159,-89,8,-38,24,-45,-83,7,32,29,63,18,2,75,79,127,127,94,110,0,5,-40,-62,-18,88,86,56,-22,-1,-109,133,170,19,43,-51,-95,116,60,-5,94,93,224,145,239,286,218,152,136,-53,-93,-67,11,71,105,-46,-13,24,-66,95,96,52,81,79,-33,108,130,40,181,191,233,231,229,236,201,97,30,28,-82,-123,-28,68,31,-33,23,99,199,198,133,1,13,77,-95,33,177,138,96,142,203,120,157,132,32,-65,4,-3,-52,-11,12,-35,-50,14,5,132,118,205,122,31,12,136,-62,122,111,89,16,24,29,29,74,16,-69,-130,25,46,19,-47,-29,-125,-151,-38,18,135,70,236,86,129,-53,79,-73,107,78,-107,-151,-108,-118,8,109,46,-102,-105,-35,30,41,38,62,-30,-46,-1,65,112,68,62,-23,89,-53,57,-156,-95,-55,-64,-97,-58,-9,-30,-17,36,-36,-8,-6,-55,21,41,81,-22,-13,56,23,11,70,56,-20,7,-9,-27,-228,-118,-134,-78,-3,100,111,60,38,34,-25,55,41,12,-35,22,-69,-46,-54,-46,-33,-159,-64,219,-74,23,-34,-64,-164,-145,-17,-47,-35,36,96,121,93,38,-49,9,-2,-8,-32,-43,-60,-32,-69,14,-30,23,-106,151,18,25,-19,-69,-165,-25,9,-60,-1,37,69,-8,56,15,-1,-58,-8,-62,-19,40,-52,-37,-9,55,37,-17,-176,-133,-105,-15,133,-72,-48,15,-17,17,-8,30,37,-1,-36,-9,-80,-13,-22,-34,13,30,-17,-59,-36,98,-15,31,38,-59,-46,-32,60,6,-37,65,-41,-41,-77,-107,-38,-28,-10,-28,9,-10,9,-100,-8,5,-32,-68,13,36,1,-36,20,-29,-14,38,-33,-167,10,71,112,40,-89,-110,-21,-38,2,14,-84,-20,8,-68,38,-9,34,38,34,-32,-58,-132,-23,-93,37,15,-48,-211,-69,-58,-13,-19,-56,-116,-5,-42,-76,-41,-71,-80,8,-53,-13,-15,-44,9,57,11,-89,-215,-25,-14,25,-7,-20,-121,-34,15,-70,-97,-114,-150,-60,-124,-189,-11,-44,-39,-21,-29,9,-96,-41,-122,-125,-137,-238,-238,-45,-66,3,1,-31,113,-39,-98,-119,-131,-133,-29,2,110,46,21,38,-4,-43,-60,-121,-207,-139,-92,-207,-208,-209,-226,-63,7,22,-32,-32,-68,74,-19,-11,-61,-5,-66,-80,-87,3,40,-30,62,-77,-61,-92,-122,-69,-74,-198,-84,-35,-103,-22,-44,29,-11,14,-15,20,125,85,178,177,-27,-44,92,176,61,-106,-22,0,-28,-65,-195,-9,-39,-58,30,-14,-74,25,-29,-8,7,32,-28,-10,6,-41,96,97,82,138,222,261,148,154,149,106,42,121,43,-19,38,57,98,59,8,-1,10,-21],[-27,18,-22,10,28,5,30,-1,-21,-4,-24,26,21,-50,-82,-30,-11,-11,34,-10,-2,9,8,30,34,-33,17,30,-23,4,-30,24,-15,11,3,66,10,95,52,33,87,70,-67,-9,97,105,18,147,140,56,94,32,-23,28,32,-11,-8,11,-21,53,38,45,51,32,26,-30,52,89,102,129,165,114,64,99,72,218,122,44,2,108,120,61,-3,-24,-11,1,-53,42,72,16,72,208,271,168,11,108,95,170,95,-77,-55,36,78,54,17,10,-88,-107,57,67,101,36,-9,-34,-118,-186,-91,-97,-78,59,130,124,6,-23,-31,-47,-91,-14,-51,-67,29,48,87,69,-33,-63,-163,3,-115,-82,2,5,-23,19,41,-89,-106,-40,17,38,63,-53,-89,-50,-39,29,34,18,15,48,100,57,41,6,-114,15,-103,-33,31,47,-117,-20,-79,-83,-114,-141,-60,-31,-13,-101,-60,-47,-33,-37,-26,-45,-41,-16,-2,-5,82,-9,26,-2,-42,-50,17,50,-85,-116,-83,57,-80,-56,3,-22,-17,-19,-61,-67,-45,-73,19,17,-10,-52,-61,-6,37,-60,21,47,-17,15,114,61,-15,-99,25,-4,-149,-111,-72,8,10,5,-37,-45,41,-13,30,56,-54,-90,-34,-63,-23,22,42,14,-98,11,15,-89,29,-59,-61,-45,-77,-28,-27,-63,-32,-23,27,-11,-92,-3,55,7,-68,-2,-34,-64,-116,-53,60,97,-13,-46,-7,-78,-31,-27,-164,-90,-69,24,-67,-117,-75,-21,-61,-54,-118,1,-9,60,-26,5,-3,-89,-145,-99,54,94,45,-82,-17,79,-203,-127,-159,-54,-35,-21,-80,-89,-62,-23,-22,-91,-124,-76,4,11,-35,17,-95,-110,-142,-136,-17,5,-96,-85,0,-94,-91,-100,-183,-167,-41,32,-23,3,43,16,36,-98,-53,-75,-65,-35,10,58,-38,-131,-81,-117,46,-21,-34,-96,21,-147,-99,-103,-192,-63,-19,15,-60,-12,-6,-20,-4,-43,-119,-127,-86,-46,25,6,-69,-79,46,80,155,-59,79,21,51,-103,-126,-199,-52,43,78,47,-39,-21,-68,-78,21,-102,-130,-109,-50,-61,-17,-105,-2,66,82,57,180,10,105,13,31,-17,14,-47,-2,35,25,59,-4,-79,-62,-57,20,-69,-152,-85,-56,-92,-19,-53,7,30,50,86,182,61,24,47,-40,-14,44,9,3,8,-65,-2,-6,-90,-71,-29,-27,-79,-43,-79,-85,-19,17,52,58,59,74,128,175,148,30,15,28,23,52,3,103,87,21,-16,71,-11,23,61,76,8,-49,-34,-58,-54,-29,76,40,90,43,14,133,177,55,154,-102,-42,-16,111,164,109,63,100,152,128,63,5,78,-50,7,-21,7,-57,11,23,61,61,21,171,113,33,-95,24,-17,2,-57,172,129,147,65,55,130,142,73,141,61,36,21,-33,-61,-13,-4,-65,115,105,89,165,102,-9,-50,5,-5,98,-55,105,163,75,-23,-5,55,112,53,65,45,132,-17,-60,-13,-34,10,6,60,21,53,60,21,40,-64,-9,-8,8,-75,47,67,-27,-64,-31,-28,-30,-35,22,39,96,57,-63,-48,-85,8,31,47,21,63,69,57,26,123,11,15,6,43,91,-4,-41,-41,2,0,6,81,69,95,17,-62,-72,-70,-58,2,19,0,99,91,89,112,-45,115,29,4,10,91,140,2,-33,54,58,65,55,121,116,119,38,35,-62,-53,-10,1,1,114,127,73,-9,161,-3,72,14,-22,-26,-102,5,-1,-64,56,7,49,41,58,79,124,97,40,-45,-74,49,51,24,99,232,76,26,168,65,74,-7,23,30,-40,-40,-125,-131,45,34,12,-47,24,64,35,-27,-103,-88,-98,-86,-52,-69,106,164,107,21,53,59,55,9,-23,-32,10,-17,-21,-73,-104,-130,-188,-273,-125,-55,-95,-145,-322,-142,-127,-143,-194,-144,-116,-80,-119,-67,11,1,33,24,-30,-4,1,-29,-54,-112,-111,-95,-127,-91,-127,-93,-108,-99,-183,-155,-54,-175,-209,-93,-153,-143,-136,-50,-27,-9,-21,28],[23,-4,-26,22,-31,-26,-8,-31,1,-24,-8,-27,-4,14,58,24,20,-18,-3,-32,-28,-20,-13,-23,-3,1,19,19,30,20,2,10,25,30,-69,-22,-14,18,46,65,7,17,-36,-117,-20,25,18,4,21,14,61,-1,1,21,-8,6,-25,12,-29,-14,-54,-63,-27,-81,25,61,-84,-142,48,-36,-1,-70,-36,13,2,-74,-16,174,134,54,17,-57,9,15,31,-14,-65,-81,14,96,41,-57,183,150,110,104,90,69,151,65,11,-121,-123,-5,3,-17,-2,-44,27,9,56,24,-20,-9,-39,74,65,-47,-105,-13,64,79,41,-3,-36,-1,-73,-60,-46,-47,-9,-154,-94,22,-3,67,55,30,11,105,22,-14,-54,28,-137,-75,-99,43,179,54,20,15,-55,12,33,-33,-17,-72,-57,-127,-131,-59,-3,40,-10,6,41,86,-20,-5,137,1,79,121,93,60,10,35,-15,-10,-34,13,-22,-41,27,-22,-21,30,20,53,23,34,139,-34,55,36,-5,8,127,43,199,153,71,88,-26,6,10,48,-45,28,54,-44,26,25,-3,57,58,7,-14,-52,-4,26,26,32,-120,13,145,-37,165,115,-64,-7,29,68,-25,-10,33,-60,7,34,-40,-6,7,56,60,16,-34,-61,-32,19,-62,-16,-7,81,182,-38,92,42,-41,-2,37,4,-63,-42,37,-86,-48,-61,-49,2,3,30,90,-23,-122,-113,-71,-67,23,109,40,-16,67,136,8,-11,-60,-7,6,-40,-40,-70,-127,-128,-138,-113,-50,-38,24,28,10,-61,-140,-105,65,106,30,42,44,18,41,18,0,-106,-30,-83,50,10,-51,-61,-37,-122,-184,-152,-79,10,6,-26,-112,-111,-54,0,38,-44,-185,18,-20,6,106,-104,-95,-160,-14,-102,59,37,-9,-70,-40,-70,-110,-48,-35,-18,11,23,-46,-79,-28,-63,-28,136,14,80,-100,7,10,-105,-77,-45,-36,39,-33,39,224,1,-93,-35,-73,-109,-85,30,21,16,31,82,106,30,72,119,-32,-45,22,-52,-75,-170,36,-15,-28,70,92,115,119,16,0,-71,-83,-57,-63,10,16,89,117,176,165,151,158,-53,-24,9,-12,31,-110,-57,77,70,4,-52,-68,-32,70,6,44,-78,-110,-23,-57,60,33,91,182,164,147,192,143,-67,88,-26,20,27,-59,102,127,122,-59,-127,-176,-187,-137,-34,60,-21,-68,13,0,52,46,133,93,97,126,104,30,-105,-28,-46,13,-25,19,150,53,28,-1,-64,-153,-154,-118,66,60,-4,10,119,54,-3,-15,-5,-12,-22,11,60,-44,-55,-60,-115,51,-35,-5,211,-6,-45,37,28,-57,-147,-47,73,64,-12,18,146,56,36,17,12,-41,-44,-7,33,-89,-106,8,-86,-10,20,133,63,21,-34,-68,10,-58,-80,39,125,46,-48,49,29,5,6,77,18,-101,-36,-61,-60,-78,-80,13,-47,22,73,26,91,-68,-12,-8,8,22,44,59,28,-34,33,59,-10,-50,22,67,-37,-91,-78,-62,-81,-63,-55,-55,-34,-51,41,-3,49,-12,48,-38,-18,11,31,49,17,10,57,36,10,-21,-38,46,-11,-109,-98,-91,-14,-91,-77,-23,19,5,31,69,-34,-23,-41,-18,-23,17,77,93,72,63,36,74,13,-50,18,18,-13,-142,-73,-135,-62,38,-147,-95,-9,-19,-7,42,25,-48,-29,-12,-18,-3,65,124,117,32,3,38,-11,-50,-20,9,-69,-90,-106,-95,-52,106,4,-7,-7,-11,10,-122,25,-10,81,43,-68,2,16,24,94,50,120,110,77,64,137,77,19,2,121,6,-19,72,33,40,33,34,19,29,54,181,151,96,79,-16,-1,177,112,55,-2,53,37,7,31,52,71,126,124,151,163,147,-15,50,12,26,30,-10,13,10,53,6,-58,-148,-66,65,30,68,99,52,6,81,38,-34,97,77,-26,73,-53,-114,2,2,20,28,-34,-15,-6,12,-21,1,-27,10,4,63,30,5,46,-69,-137,-7,-29,-146,-41,-28,-16,11,65,-25,3,-19,-29],[-7,-12,-21,-15,-6,-5,0,25,-17,20,4,-4,101,120,21,8,-20,-8,-18,4,-33,23,35,5,5,-5,-35,-26,9,-10,-6,26,-13,11,33,82,17,56,21,50,19,-75,-187,26,52,51,90,144,205,62,74,63,29,19,15,-27,11,-22,-23,79,35,-65,-53,62,43,1,118,160,67,33,-37,-182,-106,-27,134,138,14,-34,89,116,-22,6,-20,8,11,2,57,92,64,23,123,163,224,106,82,-4,70,65,155,133,38,-179,-124,-88,-60,-104,-116,37,95,-31,-61,-12,23,18,75,221,71,18,122,199,171,173,151,228,171,98,63,108,12,-54,-26,-16,-1,-74,-76,-70,98,115,141,150,31,-11,141,201,59,-39,45,162,93,16,170,209,120,141,67,19,81,63,83,-3,-10,-75,-6,59,-33,79,8,69,22,-8,-157,3,61,-7,59,-3,80,8,-47,28,-22,62,77,87,137,46,-30,35,-26,6,55,101,21,65,66,-49,-14,-5,-79,31,67,109,40,-32,42,-59,-16,-18,50,20,99,4,69,46,-59,83,97,63,-36,-10,-111,26,-12,-45,154,-116,-110,-166,14,180,-14,27,145,91,130,85,5,-9,-10,2,-59,-85,-30,-9,-20,-10,-5,-45,-178,110,149,-29,0,83,-106,-114,-48,229,108,140,93,30,69,66,34,-118,-55,-85,-117,-170,-91,-49,-9,-29,85,-9,26,146,32,51,4,40,-27,-13,113,128,25,79,92,-43,-4,49,-17,17,40,-32,-43,-23,-6,-6,-27,-7,-50,-65,-3,22,52,80,-6,174,-186,28,17,16,-52,10,13,-116,-22,3,79,91,142,53,64,32,30,-38,-6,-99,-172,-93,-74,-108,16,96,-3,40,-39,-28,-64,-31,-76,-40,-10,-26,60,190,157,164,141,87,25,-63,41,-20,32,-24,-67,-65,44,-87,23,78,27,97,-123,-97,-187,7,-113,-19,20,29,50,223,211,193,145,81,62,14,-4,-5,-13,-14,11,39,146,2,-152,-103,13,69,27,-227,-265,-24,-31,-71,-137,-66,-21,139,213,155,116,8,16,8,-15,-9,-45,-16,71,204,92,57,-68,-102,-17,106,179,-118,-173,-257,-178,-288,-351,-265,-170,-55,72,80,-26,-55,-10,24,49,8,38,38,90,218,173,173,20,72,26,67,21,32,-40,-255,-181,-267,-320,-395,-432,-311,-208,-136,-93,-34,53,86,113,109,63,123,121,164,274,95,-198,-3,-24,58,-18,243,101,0,-25,-181,-221,-360,-518,-449,-410,-335,-183,-82,-12,65,101,106,76,106,21,62,240,14,-281,-112,-95,13,95,379,255,149,64,-77,-56,-165,-199,-251,-312,-269,-57,-24,45,11,28,122,21,30,21,15,253,166,-240,-109,-34,-134,74,289,195,181,108,101,85,112,78,82,31,46,-22,-18,-13,-33,7,-26,-5,52,-73,27,101,-46,-54,7,-26,8,-58,91,143,150,104,88,170,157,189,170,143,94,19,-74,-19,-31,-38,-41,-50,-16,-45,-43,-32,-293,-54,-39,9,0,-23,-5,10,59,56,81,217,129,161,178,196,138,-38,-28,-122,-77,-49,6,39,-59,-80,18,-129,-205,111,-33,26,10,16,64,-10,-10,0,58,113,21,123,102,134,98,14,-3,1,40,24,55,-25,-33,-125,-28,-149,-174,9,-28,34,-15,160,198,120,89,-59,-4,118,89,175,202,95,17,27,35,52,51,116,9,-16,-33,-164,-140,-101,-108,11,5,30,12,-77,88,76,88,-31,78,-70,-16,-27,-136,-135,-115,-148,-95,-11,-34,-81,-166,-157,-215,-312,-224,-86,81,104,-8,-20,16,-4,45,94,62,-3,-28,-179,-218,-3,-67,-50,-95,-53,-42,-131,-166,-101,-258,-225,-183,-192,-140,-101,89,117,2,27,-20,18,57,216,16,-23,-154,-207,22,156,45,-91,-126,-46,-90,-132,-41,-2,-149,-242,-82,-41,-73,-72,2,2,-31,-27,11,26,-34,-43,-81,-96,-141,-86,-113,-213,-115,-99,-160,-117,10,48,-30,-65,-137,-97,82,31,73,5,33,7,-19],[-25,-21,-11,8,20,-23,-6,-29,-4,2,-26,18,55,35,-21,-19,-23,-16,18,-4,4,7,-27,22,-19,-28,-9,10,-26,30,27,8,3,-2,44,81,98,111,93,59,41,18,-62,-78,55,19,88,112,126,79,32,29,19,-12,-26,-25,10,35,-25,-53,14,50,56,114,131,198,157,241,243,180,288,158,56,109,-42,-47,5,93,88,78,41,2,-20,-15,-33,30,-23,-57,-51,143,255,209,91,135,50,128,93,33,37,17,2,-70,-148,-97,-122,-19,-11,41,9,-18,2,-27,20,30,-26,-113,94,201,254,136,130,103,121,9,-11,68,65,-32,-17,-24,-31,-3,-65,1,-43,-43,-76,-72,27,92,-29,34,118,-10,152,20,68,63,88,82,83,-80,30,-14,19,-28,-33,-7,12,52,21,-32,35,17,-4,60,-18,128,-27,31,24,9,155,41,43,47,-29,6,4,-56,-59,-75,-91,-21,-61,10,-55,-43,-62,-68,-42,-67,-42,-39,-35,62,10,-23,77,-46,222,36,-12,-63,-120,-79,-61,9,-38,-12,-92,-66,-73,-23,-27,-38,-27,-24,14,-110,34,59,-4,73,106,81,94,2,107,52,-102,-99,-169,-77,-56,-3,46,47,-34,-52,-87,-8,-3,8,-31,-13,-66,-89,-7,-18,-74,-62,-38,-111,5,56,2,-62,-72,-118,-83,4,29,-53,-38,45,-66,-33,-63,26,28,10,6,-20,-60,-106,-25,-71,-160,-186,-35,-52,-1,53,-12,6,-76,-93,-67,-25,-51,-49,59,33,-45,-75,-26,-32,-23,51,24,-39,-8,-9,-70,-111,-160,-132,18,11,-44,-37,-86,39,19,-6,59,92,34,-26,16,-6,41,-66,41,16,-10,95,64,63,52,11,-73,-47,-178,-102,16,-99,-56,-104,-14,68,5,12,8,90,7,-42,-20,-77,-76,-122,-1,-13,6,61,62,116,147,92,45,-138,-162,-93,-77,-45,-31,-83,-34,1,85,2,61,78,-6,-34,-24,-25,-50,-49,26,39,9,112,32,99,134,133,-55,-106,-10,71,-54,29,-23,58,-37,75,52,93,120,59,-1,-3,-36,31,-56,19,80,42,61,84,-7,76,112,17,-38,102,100,94,-54,-45,15,139,3,52,84,101,97,72,40,38,70,126,111,70,67,25,40,48,-7,23,48,32,-8,199,191,78,19,-11,77,132,65,40,106,110,97,68,25,29,61,53,91,57,121,72,-11,81,4,24,-36,-24,38,316,248,84,-19,-39,112,97,115,19,19,61,71,23,35,13,76,137,90,41,83,41,26,2,-43,53,-9,37,-13,189,125,50,-40,38,47,181,138,-1,47,92,62,11,-51,58,173,132,117,37,59,13,28,0,-31,-5,45,35,107,224,142,215,-24,-119,-38,138,195,125,29,80,25,-4,-2,48,48,80,128,69,59,-28,12,26,22,24,85,182,39,94,195,64,-8,-103,19,171,153,44,-22,66,-10,-3,-43,-15,-4,-56,48,103,64,52,59,79,80,86,87,136,96,7,102,-75,35,55,96,159,135,-7,-22,4,45,23,-16,-44,-36,33,20,-5,59,131,112,109,87,85,197,119,-4,-80,-55,30,-7,-23,51,114,-8,57,-55,-62,-6,-4,83,-9,-62,-70,-39,30,34,29,27,64,43,186,179,25,-50,-96,-68,-23,1,-1,48,131,-116,-57,-45,-122,-32,-36,19,-19,-91,-96,-37,-70,-107,-102,32,3,115,153,101,-19,-73,-100,-86,-17,28,-18,13,-46,-27,-202,-153,-124,-99,-77,-64,-31,-112,-138,-120,-68,-135,-175,-95,-61,56,22,14,-17,-30,77,62,10,12,-8,36,-20,-13,-42,-61,-88,-2,-73,-119,-9,-23,-30,-77,14,-29,-126,-128,-57,-21,-77,-90,-113,-122,77,68,-30,-32,-20,-1,-11,187,171,163,116,82,-112,-132,-41,30,1,25,37,23,-137,-213,-74,-75,-14,-131,-72,-30,-16,23,31,-33,18,21,9,-40,-50,-39,-87,-62,-14,-56,50,28,-44,-55,33,12,-54,8,53,70,-62,-73,-116,18,14,-10,11],[-2,-35,-10,-20,-11,4,-17,-25,13,-31,7,-27,-24,8,102,44,12,18,24,7,1,17,8,17,3,26,-24,2,21,-27,-26,16,25,-35,26,69,88,135,51,50,30,42,-78,-55,11,63,63,114,78,13,100,70,-6,-6,-12,30,8,35,29,83,119,75,-11,12,112,208,146,188,249,293,268,41,2,-35,-173,-42,-90,-31,76,46,52,-14,-26,-4,23,-33,-52,40,-4,-32,45,128,216,109,211,240,236,116,38,42,102,224,146,109,-49,-93,6,-126,-124,-80,39,5,8,-16,-31,-146,-30,-103,78,198,241,259,197,185,201,127,185,117,85,64,86,16,33,-123,-6,45,-116,-65,-72,-8,-11,-8,74,-62,23,-54,181,225,156,187,157,-56,0,-8,43,99,30,32,-22,10,76,-39,1,38,-107,-91,-34,26,30,2,19,-33,-47,-9,152,133,46,-118,-45,-85,-47,55,36,47,-2,-22,-55,-28,-16,-87,-67,-162,9,-54,-50,-56,-3,25,-40,-114,-42,-34,2,27,-124,-94,-33,-16,4,15,53,70,102,129,39,-56,-62,-109,-65,-21,-2,-68,-110,-38,181,-162,-163,-172,-138,-44,-41,-54,-177,-56,-14,26,27,53,-9,110,85,76,15,80,-38,-74,-24,-28,-4,-94,-172,-43,-50,-43,-162,-123,-16,-169,-97,-61,-65,-5,56,-6,-25,-33,-43,-74,-21,51,147,133,-23,-56,-66,-98,-48,-20,-187,104,-1,4,-67,-86,-36,-202,-162,-92,-18,18,-29,-28,22,37,23,-71,-20,132,182,80,-47,-135,-85,-6,-79,39,-16,51,16,99,-15,-171,-190,-155,-72,-142,-103,-54,-59,-144,-84,88,189,87,149,196,117,-58,-130,-126,-111,-66,10,63,-26,-39,0,-64,67,-192,-119,-21,-47,7,-50,24,-21,-38,-14,196,229,123,141,28,-87,-143,-147,-99,-47,1,-36,22,-35,-117,74,-89,-127,-164,2,74,50,66,-45,-45,-27,-9,76,116,151,147,47,-154,-151,-162,-71,-53,-81,15,8,42,-215,-45,-7,-73,-42,-137,89,109,31,120,61,41,-25,57,23,36,-8,-52,-86,-147,-123,-127,14,39,85,-45,-107,103,32,31,-4,-15,63,-220,66,143,83,146,148,148,116,57,-1,14,-43,-183,-121,-140,-35,11,26,21,10,-64,-158,148,117,152,11,72,54,-217,67,95,99,221,176,98,58,66,-44,-85,-144,-174,-124,-85,1,16,-19,-44,-11,-29,6,207,90,110,34,-17,-113,-91,112,101,123,129,63,113,52,-26,-132,-130,-174,-53,-13,20,34,47,20,-11,90,66,53,137,164,6,-69,-19,-94,-94,193,141,105,86,22,90,-23,-104,-149,-162,-34,-45,37,53,53,40,56,57,120,190,-9,44,117,153,-29,-92,-192,-107,169,144,97,35,-100,8,-79,-89,-118,-142,-75,-68,0,35,53,69,68,69,145,79,-145,12,118,114,-3,-78,-194,-175,93,97,99,67,-90,1,-69,-86,-50,-16,-10,-45,-17,-5,30,49,22,-34,12,19,-141,-44,104,52,-21,31,-99,-195,41,16,25,15,26,43,25,15,6,-13,-37,-77,-75,-77,-2,-12,-12,-59,-3,12,-170,45,151,-18,-12,-3,-27,15,-39,-61,-32,-17,-71,64,54,-4,-6,30,15,-21,3,-17,-27,19,43,-44,-87,-64,-80,0,135,-18,-9,-28,84,127,2,-41,-40,-30,-28,42,6,-70,-35,-72,-6,22,-70,-52,-54,-49,21,-52,-61,-101,-164,-41,12,-5,-8,-5,63,121,34,112,-86,5,-98,-20,-25,-126,-60,-80,-85,-86,-57,-5,-20,-93,-55,45,-58,-111,-28,-6,-12,-31,-30,7,82,21,168,242,-106,-51,-69,-50,-162,-117,-48,-24,-132,-142,-60,9,31,62,44,72,63,4,23,26,-4,-33,32,-4,16,44,220,198,143,27,-48,-41,1,-17,60,-49,-60,-7,50,3,-65,-54,-35,-33,-2,-2,27,16,24,-24,6,8,-35,33,-10,8,-31,-44,-12,-38,50,28,50,-72,-108,-72,-63,-111,-108,-5,-90,-83,81,-41,-22,-4,-1,33],[20,2,19,11,-19,4,-4,22,19,-11,4,-19,-9,38,84,66,0,-15,34,14,-2,-33,-19,23,1,31,14,-18,-28,0,12,26,-15,-6,-3,21,-29,27,-81,-67,-112,-96,-8,-18,-42,-34,-56,58,35,20,50,24,-21,30,-22,17,0,-35,-16,-64,31,-9,-18,-46,-37,14,24,7,-65,-83,-102,-169,-95,-47,-54,-174,-143,-183,-113,-122,42,2,-33,-2,-1,-6,73,37,15,51,79,-2,7,-19,91,20,-65,76,24,113,36,-7,141,82,-64,-3,-4,50,-111,-50,-60,-9,14,28,107,38,-113,0,90,178,152,138,-3,81,-29,109,134,58,-13,38,108,-13,-34,-87,-77,-111,10,69,26,-62,20,7,152,86,29,72,48,-24,-94,-156,-35,87,127,144,-3,-59,1,-26,-5,37,80,-70,-134,-104,-160,-82,56,-92,12,91,6,16,-93,-5,-2,-37,-116,-196,-44,45,37,12,40,127,110,12,106,140,98,-19,-168,-97,-124,-61,-18,-35,-22,34,23,-140,-165,25,63,-10,-93,-123,38,46,72,84,39,111,99,16,66,184,100,-71,-79,-92,-59,-11,68,-77,-180,67,-135,-214,-192,54,101,55,13,-58,-9,34,81,107,23,31,-3,11,89,150,128,13,22,157,136,48,79,39,-39,-147,-43,-60,-124,18,24,66,-5,-17,44,87,72,38,-32,-47,-42,-48,0,32,-22,-5,107,127,116,12,107,-125,-35,-56,-159,5,-99,-47,57,9,15,129,113,18,19,-107,-84,-103,-61,-14,-1,-19,-89,-90,28,178,115,46,71,-80,-36,-188,6,-137,-132,-46,108,58,83,191,127,-27,-142,-109,-20,-72,0,-13,38,-91,-70,-22,-2,102,320,241,245,6,-25,-40,-14,-169,35,36,192,90,33,68,-48,-251,-263,-154,21,4,38,11,-89,-125,-64,-42,-78,67,134,144,130,-20,-14,-114,-110,-181,168,-19,105,44,22,-7,-132,-291,-196,-67,108,94,19,-129,-202,-73,-71,-68,13,-33,110,149,153,89,-12,-56,-45,-40,175,115,35,-14,-85,-135,-175,-184,-118,1,76,34,-87,-219,-182,-101,-51,-120,15,43,116,94,248,137,-41,-27,19,82,130,137,44,-27,30,-128,-135,-133,-120,56,16,-61,-93,-271,-168,-112,-49,-99,-39,60,62,60,191,65,-31,15,-29,67,110,84,-26,-10,-2,-39,-87,-99,-74,-7,-17,-134,-120,-273,-202,-150,-11,9,17,67,31,115,280,121,8,-18,-10,86,12,61,-3,8,-11,-88,-95,-79,-16,-21,-116,-178,-220,-179,-237,-75,-24,-27,70,44,-11,125,65,10,-60,41,52,10,-158,70,18,34,-62,-30,-26,31,27,-96,-114,-89,-99,-63,-55,53,102,136,99,49,51,236,-146,-61,17,-146,-13,-181,-101,71,105,69,17,33,85,89,30,-11,-68,-74,-53,87,85,120,155,197,141,63,80,23,140,6,9,-111,-39,-29,40,171,56,5,-27,-29,45,-8,-11,14,-24,29,43,105,90,121,107,164,102,51,18,5,131,-4,28,22,189,-114,170,114,107,90,-7,24,32,13,8,34,92,81,44,103,29,26,66,82,-12,-7,1,123,-140,-33,24,8,189,-62,120,190,95,9,75,17,-89,-12,-26,76,78,29,45,67,100,112,77,47,29,-48,-113,123,-128,1,-15,35,29,-121,5,157,-28,-82,46,11,-29,-68,-43,34,43,75,55,95,107,43,58,22,-67,-220,-197,58,-48,-12,-29,22,-142,-51,117,63,-54,69,107,32,141,62,33,-34,-38,123,-26,7,63,14,-55,-82,-141,-171,-125,13,-5,14,-26,-15,-11,157,61,29,-77,94,125,71,-32,1,41,22,90,61,51,57,62,43,15,-60,-110,-63,23,-25,-15,17,24,-12,-30,94,96,14,57,140,74,6,42,130,68,32,158,128,84,190,256,215,153,147,120,35,92,8,-4,-32,-4,21,12,-33,-62,-38,8,-15,12,-13,5,118,-17,-67,75,125,74,10,-26,48,-44,-66,33,62,-31,19,-2,-21],[20,8,-6,-10,3,14,17,-22,12,28,17,35,-10,-18,-114,-48,15,21,-22,-31,29,1,33,34,0,30,-19,-16,-30,1,-14,8,20,19,-51,-39,-56,-40,38,99,47,-5,-126,-79,-164,-100,37,62,85,35,26,-4,-4,3,-10,-17,5,22,-7,39,76,91,-47,-65,-66,57,11,-41,-55,59,-39,-49,-40,13,-19,-45,-63,72,72,64,76,76,-23,34,25,-25,-70,2,133,-32,18,73,176,62,23,164,11,-41,-177,-187,29,3,-20,56,35,52,21,-45,77,10,91,16,19,-37,-111,46,28,42,70,128,201,108,99,57,8,-36,-87,-135,-108,-122,-117,-54,-57,45,1,51,32,25,-9,66,-35,-27,-133,149,115,169,55,144,147,156,132,85,23,-77,-81,-104,-39,-118,-166,-160,-108,-83,62,69,41,-63,-10,97,-20,-73,-24,192,140,33,144,148,71,59,22,-14,-15,2,-15,-48,-113,-103,-115,-73,-30,-46,41,-41,51,-8,-40,-27,-15,-109,57,229,172,54,52,95,-20,-55,11,33,33,6,-5,-44,-35,6,-84,-54,-11,-41,14,26,19,55,55,20,-48,7,31,99,185,54,-71,-108,-199,-124,-31,11,97,66,59,19,-43,-37,-48,-80,1,-88,12,139,138,78,-116,-82,9,39,-66,10,59,77,-63,-97,-79,-68,-29,38,155,91,74,98,60,-54,-52,-102,-106,-120,-1,58,192,46,-84,20,-1,-12,54,-42,-174,55,38,-50,-3,-35,-16,53,122,118,99,78,-43,-46,-134,-121,-157,-41,-9,-58,265,210,63,-21,46,-78,89,-18,-166,-2,-19,24,-28,37,78,92,171,201,30,-79,-108,-199,-130,-91,-159,-23,-47,68,168,103,-35,-15,-1,74,-13,-15,-177,-46,-61,13,13,22,43,65,94,70,-59,-137,-145,-159,-60,-91,-67,-15,29,-4,175,152,20,26,-83,158,126,-42,-16,71,41,68,-3,18,16,24,20,-90,-163,-115,-53,-22,-61,-46,-11,31,32,94,234,139,19,59,8,46,89,-73,85,107,34,72,-49,54,-3,-21,-33,-135,-188,-98,-57,34,107,188,27,39,-29,69,118,44,-53,-13,19,-41,-95,-25,18,20,75,1,-10,-25,18,-13,-34,-155,-179,-53,-70,96,119,150,102,-7,-84,-43,-23,-84,182,78,41,-29,-154,-94,-150,-23,14,-49,-11,20,39,4,-68,-120,-63,25,4,35,58,104,118,10,-34,-118,-194,-28,196,112,5,-28,-35,-88,-70,9,74,-94,-8,51,89,59,-60,-72,28,131,44,-70,-9,57,29,60,28,-148,-94,83,126,21,27,-50,-86,-126,11,-21,22,53,22,65,4,72,65,18,3,7,-22,6,-42,-8,-4,66,-31,-100,-61,-4,57,54,-15,25,34,-17,-77,0,-1,30,43,19,67,193,156,89,-31,-66,-60,-43,-86,-47,-17,-35,-22,-49,37,-35,-87,34,2,-14,14,-104,-180,-26,-26,-38,37,85,142,113,85,83,7,-39,21,11,-17,-61,-19,31,48,27,84,-40,-45,-60,-15,-6,-46,-83,-94,-50,-114,-1,23,6,14,55,19,20,-19,-43,-24,72,32,29,-28,1,6,79,129,-67,83,-41,-22,-38,-17,22,-74,-136,-132,-86,-68,-50,-9,-37,22,-13,-8,7,86,104,119,11,40,49,93,94,149,-34,18,-19,15,-11,-101,-38,-18,-70,-18,4,-81,-14,-31,-78,-86,-104,14,30,65,70,41,89,-38,-41,-36,33,98,-8,-20,-6,-27,-25,68,-151,-78,-10,-37,3,1,5,-14,57,18,-5,38,-48,-110,-61,-125,-42,-63,-3,-11,25,58,78,30,-16,-20,-14,-32,110,134,65,-28,40,-76,-70,-13,87,-18,-27,24,66,-55,-82,-1,-15,-70,33,14,-17,30,23,72,-27,22,-24,-16,-84,-59,48,24,16,18,15,-19,-98,-67,7,-135,-13,-55,-76,-156,-80,-71,-53,-48,-64,-30,25,20,-15,-18,22,31,34,8,-32,59,60,72,69,85,10,-7,52,-94,-42,97,-2,-150,-128,-125,-98,-31,39,23,-26,8,-20],[-17,-20,-23,4,11,-23,30,22,22,-11,-4,-12,4,41,73,82,-35,4,-26,9,-29,-27,7,-21,-33,-30,-35,1,-14,-19,-13,-35,-30,22,6,46,57,25,27,66,122,73,-81,166,77,58,-1,134,149,60,80,48,23,24,-5,28,6,24,18,28,85,31,116,97,-116,-175,-49,19,-69,-31,-148,-71,-1,-153,17,152,159,141,66,31,-36,-52,19,-2,33,-10,3,27,-7,10,33,138,65,66,156,159,28,17,-42,-45,-10,20,-8,-7,47,-123,-115,-114,-107,-13,-71,32,31,5,-19,105,37,93,118,150,129,43,33,12,-111,-69,-96,37,22,23,46,32,-24,-115,-30,-130,-245,-146,-52,-35,-27,-17,47,57,-45,99,138,140,-15,-24,-17,-103,-181,-91,-24,7,-56,-47,28,103,-17,-60,-70,-129,-127,-190,37,-103,-15,-1,-27,61,132,301,258,75,3,25,-25,-198,-232,-63,6,24,44,27,135,93,122,32,36,-4,-1,-72,-29,-38,14,51,-22,182,186,209,166,146,36,-28,-122,-126,-42,19,76,148,63,1,68,97,83,106,39,40,-23,-130,-49,-66,-40,-71,185,165,264,254,16,69,96,-54,-58,-140,-99,-52,104,62,40,-11,-4,-7,60,91,-16,-121,-76,-133,-37,-7,-12,-19,-24,27,219,226,147,76,76,-47,-41,-100,-162,-55,101,59,-20,-78,-20,6,41,6,-101,-64,-115,-131,-35,-154,-27,104,-24,4,136,112,121,108,84,-30,-22,-93,-72,20,122,-3,31,-43,32,3,19,-78,-22,64,-42,-9,-195,-124,-22,148,45,94,2,31,70,4,58,2,2,-58,-27,3,54,53,56,-20,106,32,19,-85,-39,34,7,-93,-57,89,-13,-2,85,91,12,111,153,107,66,91,56,-33,1,-12,72,30,24,-14,102,69,76,23,-26,-11,-97,-237,26,56,109,138,71,110,142,75,139,129,71,-21,-30,1,-66,-29,44,-41,-76,10,97,100,-27,-19,51,48,-85,-137,-81,-134,-65,83,81,105,205,142,125,-21,28,12,-26,-28,-28,9,8,27,-77,63,108,105,113,21,21,119,75,-156,-122,-68,-72,3,81,55,94,109,30,12,-33,-78,-98,-109,20,-25,-67,-108,-90,-43,3,31,6,-48,2,57,14,-149,-150,-166,14,32,-21,110,124,74,1,58,-5,-109,-147,-95,-70,-99,-120,-72,-90,-111,-84,-30,-56,-100,-109,-62,-41,-202,-115,-126,2,35,32,92,95,13,-75,-41,-44,-118,-109,-100,-70,-93,-36,-38,-31,-22,-48,-100,-135,-155,-196,-142,-77,-179,-212,-108,-39,17,12,28,-13,-9,-173,-114,-83,-124,-54,-30,-48,-61,19,55,95,72,39,-61,-135,-183,-98,-196,-122,-75,-208,-149,40,97,55,-30,-90,-71,-45,-45,-2,-82,-44,-71,-20,29,57,45,46,47,75,14,-21,-15,-90,-114,71,34,-91,2,25,75,56,-35,-99,-43,-84,-82,-26,-34,-31,-14,-43,16,29,80,27,79,89,81,4,9,-52,54,189,93,-34,91,49,11,15,22,-82,-118,-22,-12,-45,-109,-52,-37,18,-30,46,60,77,-12,134,51,-30,43,-6,83,173,115,-48,-1,-15,-19,32,4,5,-19,13,-30,25,-48,-81,-98,-97,-36,106,116,-17,16,46,-7,-50,87,59,101,149,112,61,-24,-18,5,-92,4,-79,6,-13,49,0,-38,-75,-78,-69,-48,29,-22,-27,45,-34,-6,49,109,53,63,153,27,66,-17,27,-25,25,139,145,82,-60,22,-15,-27,-7,-36,-40,-154,-20,9,-73,28,100,66,103,85,4,-12,43,-50,-34,-23,-12,2,3,-1,-128,-33,-58,16,76,-21,-67,-64,-3,-70,-65,-12,95,128,142,126,175,119,114,131,62,-37,-90,-26,30,28,31,59,-8,-18,10,27,42,-52,-34,90,92,6,-29,30,17,70,41,38,-5,62,89,-90,-23,11,-30,-22,-28,4,-20,-22,-46,22,-18,-1,38,50,75,164,133,177,228,3,-28,144,79,13,15,-18,53,125,-21,26,23,-1],[-3,24,-11,22,6,-30,-23,-15,-18,30,-11,-7,12,47,-29,-29,34,13,33,22,17,-33,1,22,8,-18,26,-27,2,-10,3,-21,-12,21,30,-2,19,31,-3,20,65,51,7,-150,-85,-19,32,-125,-156,-49,-71,-99,-36,8,-14,-13,31,34,-3,75,-70,-69,-13,-56,-8,108,6,-46,28,104,197,16,-52,-100,-130,-147,-122,-63,-97,-35,-19,-67,-6,13,19,6,-30,-82,-94,-44,-23,12,-136,4,-48,48,-25,-121,-113,-97,-47,-18,-52,21,-67,52,143,37,-33,61,66,1,-34,-40,-63,-164,-80,-59,10,-76,-102,-19,-41,-49,-82,-41,-66,-98,-32,-44,-25,15,95,26,14,78,-118,22,32,87,17,13,-179,-36,-101,-26,-96,-128,33,0,-25,-90,-67,-16,-54,-23,-14,-53,-37,-101,-88,-35,27,0,85,28,-114,90,-6,-37,-23,63,-9,85,-47,-20,-8,-42,-20,-94,-46,-23,-37,-81,-20,-88,5,-27,-50,-68,-11,-117,2,29,-46,61,-18,-60,22,35,-12,-20,-16,-22,-26,-53,-56,-21,-52,-17,-113,-82,-93,-28,-42,-21,-12,0,58,-98,-62,-68,-98,7,-160,24,-36,-15,53,31,-31,4,-45,-70,-40,23,11,-56,-6,-30,-22,59,-41,-3,16,-39,-88,-2,-9,-110,-158,-28,-6,85,-18,-76,87,-2,-17,21,-107,-39,-16,7,-11,-39,-20,26,-22,-57,-26,-33,-33,-2,-61,3,24,-131,-32,100,-16,18,24,-87,-75,-31,-38,17,-73,26,11,-8,-2,-46,-108,42,-47,-59,-59,2,-72,-18,-51,-38,39,-29,2,132,29,-51,151,-124,-111,-17,29,64,48,97,144,79,-42,-124,-180,-76,-62,-59,-91,-18,-47,45,90,93,36,-148,-138,-11,-22,151,3,47,-61,-102,-22,43,115,122,81,5,-118,-212,-223,-142,-31,-52,-15,21,45,72,64,52,150,107,96,-30,-93,169,170,75,-75,-41,-30,75,89,72,114,-32,-188,-179,-153,-110,-32,20,34,3,10,115,147,145,142,119,111,51,99,51,147,35,40,39,2,70,25,84,94,-15,-88,-132,-145,-132,-30,-17,77,70,18,46,54,121,195,51,168,53,90,-16,57,59,-20,52,16,117,49,73,122,19,-72,-70,-116,-75,-7,31,18,7,-62,-11,-34,-21,80,52,50,86,-16,-45,-52,-72,-86,20,5,46,44,95,80,60,12,-11,3,30,2,-33,-128,-16,-20,4,-19,-5,42,210,139,37,27,-71,-19,-133,-104,-6,17,91,101,158,231,151,59,56,27,57,34,-6,-66,-92,6,-43,4,41,97,272,138,-44,27,-53,-73,-88,-64,-54,-62,29,123,157,47,-10,31,68,49,77,56,-6,16,-136,-85,-33,33,113,148,97,74,76,-9,24,16,-95,-54,-77,-6,28,24,41,47,87,106,112,77,77,62,-39,-112,-140,-83,-89,29,56,-34,-14,66,46,13,-44,25,0,-104,-74,-59,50,-9,88,85,130,183,112,42,80,11,-24,-95,-68,-89,-46,3,168,78,226,-10,-86,-50,-29,-15,38,-104,-93,-103,-61,-20,10,64,61,59,19,19,21,-32,-37,-57,-53,-103,2,68,248,174,186,52,-29,-33,8,-20,46,-85,-97,-86,-42,-13,51,78,20,48,36,-22,-22,-58,-100,-71,0,-54,35,84,161,218,63,90,-18,-15,-32,-78,-80,-45,-44,26,-42,-21,4,-50,-38,40,-21,-30,-45,-137,-61,-91,35,-20,101,107,178,178,67,79,2,-21,3,3,-126,-77,-50,-65,-91,-119,-90,-71,-55,-50,31,11,-76,-88,-31,38,-4,71,108,61,6,43,48,67,-26,-10,6,-58,167,-2,-105,-86,-53,-91,-73,-89,15,-102,-132,-34,-60,-119,-108,-52,-123,-63,24,92,55,-45,49,39,23,-35,32,29,-84,-122,-61,-28,2,27,-24,-79,-86,3,18,-77,-18,-114,-175,-196,-43,-67,-5,32,-75,-96,30,-9,-25,28,32,-2,0,7,60,19,54,79,96,112,-25,31,64,-55,-21,-36,63,-43,10,4,-72,12,106,-1,4,-28,-1],[-8,11,13,-30,-9,-10,28,30,12,7,-35,-30,-35,-38,-3,-1,35,18,18,-17,-24,8,24,32,29,-7,-26,-1,20,-10,15,24,31,34,-34,-46,17,22,-3,-2,22,13,43,-100,-48,-53,-21,-88,-120,-70,-47,-127,-27,-15,16,4,-7,9,3,-55,-17,16,29,7,61,93,-23,-71,54,161,245,92,-66,-60,-186,-115,-76,-12,-15,33,43,11,-31,14,11,-26,-81,-85,-5,40,20,40,-85,24,27,33,-117,-102,-108,-131,-84,-1,-95,-30,-89,-50,-12,-64,3,30,12,-34,23,-9,-128,-201,-64,-36,-56,-62,-117,-86,-79,-112,-153,-99,-131,-150,-148,-59,11,21,-7,9,-13,-64,-57,-40,-105,-57,18,-13,-133,-55,-87,-21,-129,-163,-9,29,-23,-47,-35,-40,-73,32,48,45,100,56,3,-31,-47,-53,29,-10,-129,-25,-4,-47,-63,34,-2,-34,-87,3,64,2,39,22,29,39,-20,45,124,223,173,-7,-2,-4,40,-40,12,43,-33,51,-4,-49,29,22,-68,-70,-30,-9,40,31,17,46,74,77,-6,89,97,146,90,-30,-56,-27,8,-65,14,43,-38,-16,173,-74,5,-25,-97,-39,27,6,47,-18,18,66,-10,48,-5,71,60,122,-2,5,-130,-63,-87,-2,-27,-51,-98,-22,-18,64,-39,-84,-37,-80,-22,-9,-43,-73,69,24,-29,-90,-73,-10,-45,-21,-9,-93,-146,-131,-94,-115,-18,-193,-70,22,22,39,-25,-126,-158,-46,-5,-61,-82,-24,-28,9,-142,-120,-37,-17,-20,6,-107,-87,-121,-63,-81,-130,21,-54,-75,56,3,114,70,-97,-180,-59,-40,-5,70,-7,11,-13,-27,-31,43,33,41,63,-50,-65,-85,-4,43,92,-24,-102,12,-41,-11,80,23,-63,-126,-56,-8,81,40,5,-11,32,-33,-40,32,-19,53,31,5,20,24,-6,67,114,127,112,81,-84,-89,124,33,-31,15,-35,-3,26,-16,-37,11,-31,-53,-68,-84,-8,-20,-7,-47,-33,45,83,122,149,165,80,163,-53,12,-7,-1,72,35,61,64,99,-33,36,-9,-7,-98,-187,-247,-154,-31,6,37,-36,48,83,139,83,109,-6,51,31,-27,-47,-173,156,-67,84,55,-14,43,86,130,56,-88,-186,-228,-161,-1,157,73,-26,-11,7,71,-20,5,-57,21,-109,-13,-35,-92,-76,-94,-2,52,42,99,183,187,119,33,-134,-212,-132,-37,1,-16,-24,23,-25,-114,-38,-12,-58,-38,121,-10,-41,35,-89,-155,-57,-38,90,161,176,271,205,150,10,-81,-121,-106,-93,-22,-64,20,-39,-122,-6,42,145,76,46,108,-46,-2,-201,-208,-95,-101,3,83,42,89,91,104,14,2,-11,-60,-109,-36,-89,-20,-62,-109,2,19,40,21,20,3,79,33,-81,-140,-148,-130,-65,-80,-72,-18,16,70,53,71,8,-37,-33,-12,-82,-72,-100,-96,-42,-18,-21,-59,11,14,49,133,39,-147,-75,-36,-60,-61,-77,-83,-60,29,-42,-3,1,-7,-1,-8,-22,-68,-119,-70,-35,4,91,-40,-49,-23,-3,116,120,-109,-9,18,-43,-41,-20,-21,-93,-93,-108,-93,-82,-36,20,-26,-3,-81,-132,-18,46,-5,125,108,26,-5,-37,48,131,-38,-5,21,61,61,109,80,43,-19,56,-56,-64,-45,-24,22,-36,-115,-1,103,47,12,12,108,1,34,35,-53,-33,-70,59,55,36,52,95,122,74,71,-8,24,-78,-20,-26,12,-36,-71,113,157,28,-59,47,71,-26,29,24,-14,-145,-35,111,16,79,-65,-85,-3,-19,-24,40,-91,57,16,-11,44,-46,-23,-33,-108,-22,13,29,-16,1,-35,18,-55,92,42,2,2,-5,-149,-152,-150,37,19,45,68,129,79,55,-48,-74,-23,-62,-32,24,34,40,-28,13,-32,-16,-19,2,18,-45,27,71,102,198,36,35,215,346,409,336,84,28,-31,-3,2,-4,45,28,-49,3,-32,11,1,-12,-33,1,-53,-21,-26,14,21,118,227,234,89,86,148,113,113,160,218,101,74,62,28,47,0,27,23,-33],[-32,-13,23,13,5,-33,26,7,-32,-26,28,7,-31,-73,-80,-13,2,25,3,-8,-12,-11,22,-24,-2,29,2,-34,-25,11,-10,0,-2,-34,-27,-19,25,-23,-9,57,25,56,26,81,86,54,34,119,113,63,49,53,16,-16,-4,7,-12,-15,0,60,32,28,59,-13,-46,-107,-118,11,56,70,-49,-17,59,79,43,32,50,158,148,184,159,70,-17,-6,-8,-20,146,49,-64,60,4,12,192,20,161,41,11,54,-3,-81,-31,-12,-91,-102,-49,-29,-87,-31,-46,-22,-38,3,-17,20,127,77,64,-8,-41,38,76,20,-38,20,58,-11,15,37,42,-44,-53,121,45,26,-114,-123,-233,-161,-191,-110,30,23,148,-34,53,13,32,133,86,79,43,5,-41,-29,-42,86,101,4,44,82,13,60,36,33,-26,-37,-160,-187,-31,42,-36,-59,-97,-12,97,137,120,73,46,15,-22,-61,-101,-44,-106,-154,-124,-124,-64,-41,-14,-20,-120,-151,-140,18,-4,78,-10,-72,74,118,8,17,-24,-78,-32,-47,-50,-134,-96,-158,-133,-75,-93,-96,-104,-37,-45,-23,-32,-138,-54,-36,136,54,-17,26,18,67,-20,25,-102,-58,-10,-98,-94,-11,1,-47,-45,35,-62,-42,-39,-85,130,84,-138,-143,-119,-80,2,13,-7,9,77,13,-35,55,-62,-114,-20,-63,-63,0,122,128,168,90,2,15,26,-53,58,129,-117,-151,-156,-13,-23,11,18,106,60,-64,-47,-25,-83,-125,-48,-50,19,58,101,124,123,164,7,-32,-10,18,40,49,-76,-158,-193,-34,-10,161,-32,38,27,-49,-95,-33,-117,-45,-69,-67,-65,34,-99,-52,-24,30,-14,-15,-78,-64,-70,-94,-113,-189,-217,-40,-42,-2,-85,28,-41,-95,7,-11,-36,-34,-41,-91,11,18,-36,-89,-8,-73,-15,-3,13,-83,-34,-70,7,-91,-102,-92,83,48,8,58,-27,-31,35,20,35,60,-5,-40,-12,-50,-108,-78,-71,44,102,74,0,-74,-11,67,113,-49,-25,76,65,102,21,59,-28,-40,13,0,39,48,29,12,22,-41,-54,-55,-1,23,56,84,-22,-16,-5,10,89,44,-8,-81,28,-25,47,101,10,-15,-52,-11,-17,38,23,26,66,-58,-39,-64,-10,33,46,43,-24,-25,-25,16,40,84,73,16,-31,16,21,135,66,1,0,33,53,54,-77,26,17,64,76,-27,-53,7,54,45,25,33,41,8,-46,127,69,-8,23,20,36,142,152,143,-23,-66,-43,11,6,8,85,64,52,-97,-91,-32,-10,67,1,104,67,83,5,13,55,-11,-60,19,3,210,100,158,14,-127,-65,-56,-38,-2,81,53,-27,-74,-69,-31,71,51,-11,41,-31,39,87,39,7,145,9,-37,100,241,191,130,18,-29,-67,2,-40,33,-35,-29,-40,-40,18,3,7,38,88,22,-11,-48,-110,-115,42,111,-6,44,139,104,108,-2,6,30,10,92,89,35,27,10,-46,33,-23,3,40,33,83,38,-24,-162,-228,-239,62,-15,29,1,104,-66,69,-9,-18,50,164,113,111,79,9,27,0,-12,-23,-20,77,48,16,-29,-45,-157,-173,-53,108,12,-9,-15,47,-77,-9,25,25,3,11,24,114,81,-85,13,-35,-27,9,24,139,78,-9,12,34,-178,-129,-81,43,39,-4,18,101,-38,106,56,58,86,29,70,28,-64,-51,22,-44,-1,-3,99,201,138,5,-40,-54,-150,-138,-101,22,-23,29,18,53,47,219,139,143,-21,-57,48,20,-48,-73,-37,-49,-9,3,134,176,197,61,134,9,-109,46,77,52,-5,24,-30,-50,-153,139,-2,29,-16,5,-8,-26,-75,-14,-51,-140,-120,-150,-144,7,-6,-24,65,-39,-155,40,21,72,10,1,-24,-21,19,-28,-177,-127,-117,-151,-173,-88,-139,-229,-129,-303,-177,-216,-134,-85,-77,-7,12,-39,-43,0,-23,6,22,17,20,31,33,11,-12,10,16,4,3,-27,-113,-20,-37,-189,-96,-71,21,64,-13,-48,2,26,23,-10,11,31,17],[-21,-2,-29,-33,-3,-17,-21,30,-32,12,13,-11,58,97,74,40,28,31,-14,31,-31,16,33,-26,24,-36,26,-7,-31,10,-7,-24,10,2,30,89,61,111,68,-49,14,14,-46,3,12,28,80,84,151,13,52,28,31,21,-36,-9,-29,6,5,81,100,66,89,132,145,103,177,146,149,11,33,107,257,63,-150,-121,4,-9,48,104,142,37,-3,-29,-18,0,28,136,168,-15,96,85,140,121,63,-8,9,105,-26,-88,17,86,5,38,8,-44,57,127,131,-26,24,18,-9,18,37,5,184,41,10,-34,14,-93,-94,-26,24,22,25,-6,79,120,24,-23,-55,-69,-119,-88,-118,-186,-62,15,28,-24,19,-104,89,-6,-25,-32,-76,-61,-63,10,9,-11,49,17,-28,-15,14,-62,-4,-10,8,82,56,-26,-70,-4,23,-84,16,-56,-21,-61,-166,-138,-39,-49,-95,-86,65,80,57,99,100,49,66,37,-21,138,149,-4,33,-172,-27,53,-35,-68,-52,-18,-55,-60,-183,-30,-16,-53,-61,-11,32,122,129,57,76,74,22,60,40,56,-71,45,20,-91,-95,-37,155,-69,-60,-53,-92,-33,-52,102,-2,-8,-99,-10,121,191,-2,-66,-72,-89,16,44,-25,-69,122,104,98,-7,-86,-127,-13,66,65,-2,-60,-70,-29,-19,38,-124,-46,122,152,9,47,-27,-79,-149,-78,-9,-97,11,166,150,130,-104,-62,127,36,58,16,-56,13,-135,-58,-82,-89,-54,-1,121,206,172,146,141,1,-54,-80,-86,-44,14,43,107,148,-32,31,130,34,247,37,32,123,-85,-167,-170,-110,-118,3,141,122,107,113,170,97,-28,-75,-126,-104,-42,-45,25,216,-32,-168,-14,36,100,38,54,64,-96,-173,-94,-150,-41,31,127,159,101,68,182,184,-20,-12,-85,-83,-57,-126,-59,84,184,-81,-80,-74,-31,35,79,-10,-96,-52,-112,-138,-69,-41,20,49,48,77,199,138,-74,-13,-157,-63,-167,-165,-128,9,86,-29,-113,26,-23,84,-20,-135,-71,-37,-134,-141,-91,-23,-22,17,36,61,194,85,-72,-129,-161,-156,-236,-192,19,107,111,-3,91,-5,62,64,-145,-98,-10,-43,-53,-101,-182,-56,-33,-61,-51,80,236,103,-70,-235,-273,-138,-53,-44,155,123,146,-86,55,22,46,29,-58,-92,-15,-79,12,-74,-66,-37,-44,-44,39,143,140,27,-160,-256,-199,-108,-14,4,174,61,100,-20,0,35,76,-85,7,8,-30,-58,5,-15,-11,-96,-46,8,152,156,60,-162,-208,-228,-80,60,94,68,195,103,68,98,-21,-57,-5,-62,10,-18,-58,-63,-9,34,40,-66,-2,64,118,33,-80,-164,-164,-137,50,110,92,129,208,199,144,288,155,-34,-47,-13,-108,75,-20,-77,-76,-92,-1,-79,79,167,79,8,-175,-40,7,-116,58,98,105,84,15,43,94,178,140,-31,-78,-117,-159,35,-15,-122,-60,-2,74,47,71,131,-3,-39,-44,-30,-33,-133,-80,94,-15,-41,-181,-113,26,99,-59,20,-21,-55,-89,56,-23,-110,37,105,127,74,27,-13,-46,-3,27,-10,-42,-7,-20,38,31,-84,-97,-164,-29,194,4,-2,60,-54,-5,75,-49,-30,23,78,73,47,-43,-38,-7,5,-48,7,29,28,17,-6,-13,-122,-15,-157,-38,141,-27,-11,-1,-19,-93,-50,-88,-6,19,69,44,112,2,-1,-40,-119,-119,25,47,-17,-98,-161,-185,-1,69,-91,15,109,-6,-14,22,-10,-32,83,4,-20,94,108,-127,80,7,-61,12,32,-113,-83,-109,-47,-100,-170,-74,83,52,10,-43,36,0,-31,-14,-71,160,127,15,-146,33,-3,-2,88,168,66,75,-84,-101,-50,-74,-141,-91,-84,-122,74,139,130,-15,-12,-29,-14,16,31,35,202,12,-20,33,-95,-70,11,49,-61,-100,-26,42,15,13,54,50,-65,-71,24,-23,67,-30,-20,5,-15,19,-13,-19,-69,-54,-53,-49,4,9,12,5,17,52,37,53,57,113,27,-90,-7,-17,-12,49,29,10,-4,-26],[26,19,5,-32,16,-32,-14,-9,11,-18,-16,-34,-59,-81,-94,-35,20,28,-30,29,-1,-9,32,34,25,-9,34,-11,17,-3,10,25,-9,-5,-39,-6,-51,-42,-39,-50,-49,-64,110,65,-27,14,-9,70,75,-6,3,-52,21,0,-13,-1,30,-6,12,103,81,9,15,-39,-80,-75,-117,-117,-46,-2,-61,94,184,64,103,100,96,44,43,16,7,-40,30,-16,-5,-15,104,12,-76,-85,-71,-61,-14,-33,-103,-90,-69,-16,-12,50,32,52,47,74,93,35,-16,-16,-4,-41,50,29,17,1,66,-37,72,42,59,4,105,84,-24,-40,-70,-33,-51,-77,-27,-64,10,27,-26,52,-2,0,-126,-118,-60,29,-15,11,-11,-118,54,169,107,91,145,96,-2,-90,-171,-110,-100,-51,-105,-104,-37,-8,-73,-95,-20,63,-12,-96,-102,46,-24,-93,34,64,118,205,114,126,52,-8,-41,-110,-169,-95,-124,-140,-123,-108,-92,-59,-4,-22,-63,-64,-35,-118,-38,14,-4,-59,80,109,-34,86,25,78,-64,-23,-76,-54,-30,-41,-17,-67,-17,58,-48,48,53,-19,-22,-9,-48,-89,22,-30,-80,25,32,-7,-31,90,14,-34,-79,-32,-85,-68,1,-59,60,94,33,18,42,-9,49,46,-11,-30,-25,-17,-107,-92,17,57,-49,-54,-34,-15,-125,-82,-22,-19,12,32,56,27,108,135,28,8,-18,17,15,63,-11,-61,16,-95,-64,74,13,8,56,-39,-103,-88,-79,-84,-10,-17,28,42,92,115,54,134,97,77,0,3,-15,24,50,-61,62,5,19,117,13,-115,97,-91,-190,-22,10,-34,23,47,83,-28,-27,-7,28,58,141,64,-4,-7,31,50,83,64,43,-29,-155,38,24,28,21,-116,-92,72,67,-28,-1,5,10,-72,-71,-49,-68,66,109,11,26,10,2,41,126,89,41,-37,-61,92,-23,124,96,-150,94,75,49,-24,-32,10,33,-40,-24,-145,-105,9,109,51,17,4,-24,65,50,70,38,-2,-77,-27,-39,100,70,-73,195,110,-73,-36,61,156,31,6,-18,-115,-128,-19,1,62,64,113,-21,79,85,64,1,-84,-75,-76,-20,13,-44,-23,103,57,-20,4,72,54,84,41,1,-129,-137,-38,-39,84,59,60,52,72,53,74,-70,-128,-29,-94,-17,-17,-40,-29,33,-8,-26,-26,68,63,-46,-9,-88,-125,-72,17,18,37,32,12,1,-110,-86,-62,-142,-220,-64,-180,13,3,-26,-97,-36,-39,-56,-52,-8,-12,12,-79,-74,-117,-48,38,-17,-27,-12,-3,-11,-114,-16,-63,-2,-134,104,-210,-37,28,-23,-51,-80,-38,-65,-42,46,17,-37,-16,-73,-23,36,3,-56,-38,-14,-82,-48,-129,-60,-74,-52,-74,-25,-62,-24,-14,-44,53,-47,-20,1,-6,45,45,-55,-12,52,-36,10,-17,-26,-93,-95,-75,-94,-106,-106,-69,21,-22,-103,-27,3,-10,-37,-41,-76,13,29,-67,-33,31,3,55,1,-24,19,-1,-38,-51,-29,-43,-85,-76,-79,-132,-45,-51,16,-3,-21,-26,-129,-2,-46,45,-35,-53,-65,-68,6,-47,-8,-44,2,27,21,24,23,-32,-42,-63,-122,-140,14,-82,-153,18,13,-6,-135,-199,-71,-45,-103,-59,-35,-67,-33,-108,-16,-62,-4,20,60,-28,16,-8,-12,-39,-30,-150,-85,-72,-15,20,5,-20,-83,-216,-176,-114,-76,-64,-113,-99,-96,-51,-62,-54,32,2,-117,-56,-81,-18,-126,-95,-152,-234,-121,-78,-21,-7,16,-6,107,-41,-18,15,-37,2,-79,9,116,1,-9,56,-19,-5,-152,-154,-153,-77,-43,-89,-4,-52,-110,-58,5,20,-18,10,-17,149,146,48,-20,74,95,115,111,131,35,-32,-19,-138,-204,-198,-159,-220,-133,7,137,117,-11,-24,-8,-24,-13,-25,-9,-29,-52,-2,50,53,84,68,56,94,-16,-35,17,-28,-105,-137,-151,-76,-57,-80,4,-74,-93,10,28,20,7,-21,10,29,-10,-33,93,140,112,9,130,68,-25,17,106,-47,0,179,178,33,63,-69,-6,-96,-9,20,-31,-11],[-29,28,25,-22,-1,-26,6,27,-5,17,29,17,89,112,92,6,31,-24,5,5,21,11,13,26,26,31,15,6,-34,-3,17,6,23,-14,24,63,38,90,105,63,50,35,-25,23,30,4,-24,-44,-24,2,60,105,-31,-5,27,-15,-29,-21,11,44,109,-36,63,101,74,83,61,126,185,144,116,110,65,60,-11,-205,-295,-294,-195,-43,66,51,-31,6,33,-3,-33,73,107,50,76,79,160,-49,-106,-96,2,-50,-83,-89,5,-26,-167,-138,-82,53,100,18,-30,87,-45,17,11,23,-56,91,170,66,18,-29,-24,-187,-202,-193,-83,-35,95,-24,-66,-8,44,-78,-67,-56,-51,49,169,56,24,-25,17,20,-117,20,-91,69,-22,68,-22,-43,-76,28,10,106,61,19,-56,86,79,89,123,47,-41,-78,-29,137,56,2,-2,-61,55,-90,-49,12,-79,-14,-45,8,15,90,137,83,51,73,45,61,60,90,37,125,93,23,-39,105,94,-20,-28,-96,64,5,-43,-6,-69,-72,-60,13,67,163,82,55,11,102,40,60,45,74,4,121,87,50,-27,126,104,4,143,93,97,-29,-53,-111,-125,-121,-38,-49,13,169,156,71,-58,-18,47,54,17,87,30,39,5,137,78,64,174,120,7,24,11,96,25,-93,-80,-55,-83,-91,-39,112,180,86,-30,-88,13,9,25,-35,56,18,-27,111,123,145,214,-51,2,-30,10,102,-13,-15,-23,35,-13,38,42,104,106,75,17,-110,-57,-3,-39,-46,-89,43,72,81,150,61,223,-71,34,111,86,-43,-88,45,14,176,4,-67,14,83,89,133,51,-70,-45,-95,-44,-85,-27,12,101,90,184,230,286,-13,-39,45,36,-93,-41,-116,62,37,-19,-28,-93,17,36,47,-39,-52,-64,16,13,60,14,36,79,118,174,226,135,45,12,48,44,-54,4,-110,-15,-36,-99,-93,27,-36,19,-62,-99,-72,-41,-34,-69,1,-4,48,97,140,119,155,215,128,69,-66,24,17,-118,-112,-127,-78,-120,-118,81,-1,-6,-96,-51,-35,-77,9,-80,-32,-57,34,113,121,126,-1,264,74,24,-48,126,33,92,30,-47,-17,-148,-87,-5,19,-12,-81,9,34,-37,-68,-71,-79,1,32,16,-82,143,26,146,100,23,-49,-30,43,-2,46,14,42,36,73,69,26,-62,-93,32,2,-54,-9,-125,-85,-45,16,39,-117,-121,28,130,95,-14,-34,-147,-52,-10,94,98,88,100,163,66,0,-60,-31,20,56,-21,-39,-110,-120,-150,-28,-20,-130,-114,-80,48,21,-13,-25,-191,-93,11,69,132,155,156,96,-48,-5,-15,-23,17,49,34,-26,-27,-22,-87,-40,51,-44,-67,-67,72,122,-6,93,-105,-49,-4,88,110,94,135,6,-23,3,26,135,104,31,-20,-10,89,3,-27,-23,32,7,-44,-50,31,67,-23,60,19,-41,-41,34,60,35,140,89,25,3,49,29,55,37,-16,12,-3,-34,-18,-37,-33,-36,7,-12,24,-36,-13,32,65,23,-67,15,17,78,104,70,24,43,-6,-8,-69,-83,-110,35,-49,-52,-129,-93,34,-90,-80,-3,76,0,-13,9,19,180,1,14,96,101,59,53,-5,-9,10,13,-88,-111,-72,-27,49,44,-57,-59,37,-72,-54,47,18,-25,-24,-4,-106,147,167,37,58,88,113,71,34,24,35,-50,-66,-77,22,10,5,89,-26,4,65,34,34,74,-40,-14,8,-31,-58,-33,-10,-8,105,78,66,62,29,38,48,75,-14,2,67,-58,82,144,310,267,32,20,37,42,56,18,-3,18,8,-13,-220,-275,-38,-10,-108,-131,68,68,36,51,67,229,193,196,206,282,245,139,1,-142,-90,88,122,-26,-1,-14,25,34,-3,-82,-175,-117,-18,4,-50,114,181,139,30,-62,-42,-75,-122,-21,-146,-102,-17,1,-28,28,-19,20,-6,7,-10,-32,2,-34,66,103,52,72,-12,83,2,40,108,161,70,36,-11,20,-64,7,-5,-32,-31,-9,-7,14],[-16,-17,-14,7,-19,35,-11,6,-12,-15,21,-5,-6,26,90,-26,-2,-20,-17,28,1,-22,-11,-5,27,21,25,-16,-24,-15,15,15,37,-6,8,61,63,117,69,75,103,124,14,19,81,67,71,102,50,66,82,64,26,-14,31,-19,3,-16,22,67,91,22,-10,42,56,52,-1,52,71,161,262,45,-18,8,-59,-93,12,91,106,140,45,7,-18,28,-4,35,-101,-34,-83,32,30,1,-63,88,10,-49,-63,137,79,120,82,-101,-147,-108,-29,-72,-52,-10,-85,-8,16,-8,34,10,-92,-109,18,64,105,32,6,61,66,123,121,46,31,-10,113,-5,-66,-31,-56,-76,-62,-50,-74,-4,56,34,-13,-23,18,-16,-35,-1,55,84,63,115,99,25,67,-47,-50,42,80,32,26,-20,18,-12,-11,-11,-80,-70,53,48,11,93,-122,109,-113,-14,120,161,147,56,33,3,29,66,-19,69,63,54,80,33,-70,-23,-100,-41,-1,-137,-114,32,-13,117,-19,56,2,-41,97,184,187,66,-42,-16,33,5,49,-7,47,-1,66,-4,-57,-12,-48,-38,-36,-130,-130,29,123,-15,-50,32,114,51,94,128,130,43,48,-99,-10,84,44,-2,-2,-21,23,-21,6,3,82,-1,-98,-193,-5,25,8,108,18,50,186,62,47,89,1,-29,-36,-75,28,93,72,41,4,10,-16,29,17,33,125,108,-80,-159,-13,-14,26,95,97,121,70,51,65,27,-56,-39,-77,-89,-57,30,80,33,85,27,-20,-44,90,174,215,153,-50,-144,-23,20,23,118,74,148,85,-2,9,-20,-118,-104,-124,-134,-48,39,43,36,-15,-37,-1,-45,61,100,147,41,7,14,-23,45,-17,94,21,149,31,-2,-10,2,-64,-33,-145,-176,-91,-86,-69,-41,-5,-53,-85,-135,-65,-40,5,18,26,-28,79,108,-58,54,75,95,51,2,7,-123,-75,-64,-101,-135,-113,-69,-15,-72,-97,-136,-112,-137,-55,-37,-4,10,-5,-87,73,-57,-45,89,81,104,32,-83,-68,-124,-86,-36,-94,-48,-59,-33,23,-36,-115,-185,-90,-30,-29,39,58,45,-110,-155,88,73,-41,18,54,17,-19,-26,-80,-107,-75,-43,-27,0,5,21,96,74,-85,-129,-113,-36,39,89,36,-37,-85,-47,-151,-90,19,35,2,-46,10,-19,32,2,24,116,115,-83,-62,69,133,36,-136,-95,-120,-15,-8,9,63,79,65,40,38,-7,-16,22,-58,37,-90,-160,-59,45,64,106,-43,-13,97,119,111,-30,-127,-104,-78,19,44,4,8,118,140,215,-5,-22,75,53,-27,9,-65,-98,-147,53,49,95,64,74,196,88,4,-75,-59,2,30,32,59,84,88,109,23,81,87,7,-43,53,101,-39,-20,-61,-106,4,64,83,81,98,103,44,-8,19,8,28,-15,6,82,22,20,30,-167,-13,172,55,24,78,106,268,59,-52,-81,37,44,45,111,113,91,52,24,123,44,-36,-86,-54,51,-11,-9,95,-121,-38,77,-17,-2,35,88,162,-6,-99,-67,61,-28,-7,38,24,6,55,122,83,66,-44,-33,35,23,-34,-4,-9,-11,43,101,-34,-15,0,41,-70,-36,4,33,8,19,-24,-90,-28,44,44,125,77,-53,-76,-17,8,36,-9,17,11,-20,-45,-20,-1,-24,19,72,-54,-133,-20,10,-6,26,-40,-54,-14,-15,95,39,69,-22,-18,-2,-32,-39,-81,-105,-65,-120,-106,-89,-15,8,22,-59,3,30,11,51,-26,-47,-113,-35,-5,-14,42,-11,16,-36,-14,-50,-27,-112,-170,-153,-143,-64,-60,-127,0,-25,0,-3,-109,112,48,131,105,44,-3,51,87,108,11,51,42,-15,-48,-133,-47,-97,-215,-181,-181,-10,-112,-74,-25,12,0,-29,-35,-85,-188,-223,-104,-61,23,5,-27,-119,-8,-76,-30,7,-47,-1,18,-38,-2,112,44,62,20,-10,-18,34,12,10,35,-17,57,-23,15,38,22,-26,-35,-8,89,8,-72,1,59,-15,-30,-14,95,155,25,5,-3,-20,-35],[4,-24,-1,-11,-27,32,28,17,4,22,-17,17,59,47,63,35,-27,4,-32,31,-5,-8,-21,33,19,33,-30,10,26,27,32,5,36,5,70,82,44,89,76,-2,91,33,-31,143,31,92,73,103,112,65,74,4,-34,4,-24,31,14,34,7,-59,-24,-30,-11,64,98,14,53,35,-59,-52,2,76,14,15,93,252,210,216,151,127,54,-12,-30,14,12,-2,-96,-13,108,114,62,139,131,-8,-22,-57,-156,-56,-102,-163,-122,45,90,45,96,82,51,86,111,47,85,3,18,25,-63,-57,118,55,70,33,111,-68,-182,-72,-15,-47,-174,-138,-98,-45,23,18,32,45,106,209,136,53,-23,-38,-32,33,-137,-51,0,57,-2,84,60,28,-27,149,57,-20,-78,-72,-62,-73,-83,52,112,-62,97,178,82,34,-34,-28,5,-11,-17,-71,-119,-88,-63,23,42,65,53,123,156,109,35,-10,-63,-17,18,36,29,46,94,119,64,-35,12,22,37,60,-35,-48,-77,24,-43,6,-7,29,72,71,84,116,30,-35,-101,-90,-13,-5,72,49,43,90,45,68,130,63,145,-60,-27,-72,59,-2,-50,19,32,20,-14,94,22,113,39,-80,-47,-46,-25,57,20,31,19,60,67,77,33,38,-1,101,74,-33,62,-80,14,37,65,82,16,102,94,78,77,-17,-167,-140,-63,-3,45,-44,29,39,5,91,16,-84,-30,20,54,16,-68,-70,7,22,59,24,65,-9,40,52,86,58,-137,-130,-17,21,-1,14,20,-67,-27,30,-26,-138,-19,96,36,-57,-19,-53,4,25,-4,22,-43,-76,56,124,108,35,-115,-56,43,-8,73,87,12,-93,20,47,-46,68,-29,92,4,-64,21,-109,27,65,59,39,-16,65,103,163,192,99,-42,-5,61,39,32,28,-38,-50,14,10,-86,110,48,-54,-15,2,63,-89,-57,1,23,-2,-19,29,64,93,117,81,-19,22,86,83,59,-38,41,14,62,-5,47,44,-36,-22,54,-91,5,-63,-112,-72,-68,-133,-11,3,-105,-78,3,29,-42,45,98,20,83,-28,11,24,-5,-34,90,88,15,50,-43,-116,-27,-25,-104,-31,28,-61,-19,-64,-112,-153,-141,-69,-95,-25,26,0,56,82,66,46,18,5,49,43,19,18,-78,-111,-95,-41,-89,-42,-2,-24,-63,-23,-82,-46,-83,-67,-29,-65,-7,-104,-66,-59,115,93,-14,-73,-89,56,9,-4,-93,-86,-88,-128,-106,40,26,-13,1,-85,10,-10,-95,-70,10,-31,-58,-12,-74,-47,49,58,90,-5,44,-52,59,19,-88,-200,-113,-117,-58,26,68,6,5,7,39,-18,-65,-21,-44,-38,-72,-48,-71,1,-20,59,-39,30,44,-84,-22,-12,-14,-120,-106,-117,-2,62,73,35,66,55,59,3,54,-14,-60,-61,-64,-71,-44,3,-42,-6,12,50,-19,-62,0,26,-59,27,-2,-16,30,-12,-11,97,92,81,1,35,119,0,-71,-65,-119,-76,-59,-32,-38,-35,-116,57,-60,51,-27,-9,-57,64,-40,-76,30,42,57,6,22,-19,-9,99,152,11,-47,-47,-50,-37,-17,-83,-164,-181,-114,-55,85,21,-47,24,-116,-75,-6,-66,5,44,102,11,-37,-57,26,51,61,-13,-21,-59,17,-99,-109,-163,-177,-76,-135,41,64,-29,12,-28,2,-119,-113,-9,34,-27,-37,-6,-30,-25,8,7,27,32,86,71,38,6,-63,-141,-68,-85,38,23,47,-23,26,-28,-47,-71,-101,-119,69,93,74,10,-1,-23,19,6,79,9,45,114,45,105,-33,-23,-18,-37,-15,-39,-98,18,22,-25,1,-126,-22,78,163,79,81,125,254,153,176,190,117,-40,-19,75,182,294,228,190,169,40,68,-84,-84,12,9,1,-32,-56,112,142,161,13,-13,22,55,25,91,-130,-139,-71,66,102,219,152,100,64,91,53,65,-27,16,32,-1,-6,32,-16,-55,-69,29,8,26,-153,-82,-26,-106,-55,15,-7,13,49,89,50,-31,0,82,87,4,16,-14,34],[-33,21,2,-26,13,-25,-23,-19,-15,17,-10,-34,48,110,83,50,-34,5,-35,31,3,12,5,8,-32,17,-26,-30,22,-18,29,30,-35,3,-5,17,-1,-42,-27,27,15,43,-67,58,55,21,-58,84,95,27,30,69,34,0,18,12,18,-6,-11,71,93,-3,-94,-51,-75,-104,66,-20,-82,-89,-199,-203,-122,-224,-90,15,-9,-13,2,66,72,22,-14,35,33,4,-25,26,31,-101,-68,-82,-57,-9,21,-15,11,8,-86,-81,-88,14,81,66,44,-63,-66,-54,-3,24,-68,-32,1,-21,-25,-137,-53,-109,-42,-43,-68,0,-12,117,59,42,-27,49,4,29,2,-59,-78,-157,-79,-77,-75,-35,22,-28,-3,23,-31,-26,-112,10,21,-51,-22,-47,-6,126,43,48,-2,-26,35,-26,-5,-52,-92,-60,-112,-101,-103,-95,72,-59,-32,-20,-104,6,-131,-1,-49,-162,-83,-64,33,-21,-10,-6,11,-18,26,54,26,8,-19,-6,-162,-133,-65,-34,40,-25,14,-7,-39,-4,-160,-188,-32,16,6,76,73,-31,-7,-74,-45,27,62,65,102,3,-12,-24,-76,-49,-121,-16,-75,-31,93,11,-54,-46,-77,-90,-49,-9,17,48,87,32,-43,-116,11,129,179,131,75,5,47,-106,5,63,-82,-139,41,79,5,77,-41,-12,-2,-78,-63,-77,60,3,93,34,-23,-2,53,156,83,74,69,-17,-7,-34,115,24,3,-77,25,103,-15,74,60,-13,74,-79,-52,-6,53,29,77,-7,6,33,150,186,128,73,48,-37,21,22,79,-20,55,-31,63,108,-3,219,24,72,139,-64,-65,-16,-27,-80,-52,-28,-30,210,161,149,0,2,61,32,39,53,-7,6,97,28,104,106,45,116,-9,156,59,-136,-51,-77,-27,-28,-138,9,-4,67,75,-42,-67,-9,99,43,-42,-61,-35,-83,-48,123,158,140,65,-49,15,94,77,-56,-80,-65,-101,-112,-197,-115,-9,-15,-57,-117,-87,-82,-16,-51,-23,-66,-29,-30,-6,96,125,11,25,-44,52,43,-38,-93,-66,-39,-105,-143,-159,-123,-46,-58,-117,-126,-181,-99,-58,-30,43,0,-23,17,96,59,107,47,79,-47,140,-123,-20,-82,1,-49,-102,-95,-149,-175,-196,-143,-157,-79,-113,-60,38,-2,54,28,-88,-50,155,48,-48,81,-15,-50,46,-90,-7,8,-33,-76,-95,-73,-61,-80,-122,-96,-22,-13,31,20,-21,-45,17,4,-78,-100,-35,-53,120,112,-23,1,-70,-36,23,69,17,-58,-23,8,23,-49,-3,-39,-17,21,-3,51,7,-26,-17,-68,-77,-77,86,-39,-1,58,69,32,-34,-51,41,37,-40,-19,48,38,14,28,-53,-58,-42,7,81,59,64,-1,-78,-82,-37,23,39,-129,1,23,-2,55,9,-97,-4,-24,25,37,19,-5,-18,-35,16,4,-97,54,99,134,64,7,-35,-122,-91,33,-37,-143,31,61,-15,-93,-46,-10,53,27,16,52,49,-39,13,87,2,-47,-73,23,14,-5,-115,-34,-52,-150,-74,-115,-52,-31,-23,28,0,6,-18,26,76,72,56,33,6,37,47,36,-102,-65,-47,6,58,-44,-43,-43,-86,-125,-136,-133,-58,83,156,-24,5,16,-24,137,5,187,156,47,-42,89,26,-28,-49,9,74,71,35,60,-6,-70,-115,-159,-169,-140,1,94,133,11,0,6,34,159,-24,155,53,-27,-11,-26,-97,-58,59,60,40,44,81,93,-44,-34,-114,-195,-158,-130,68,53,55,2,-27,-30,-53,-117,-158,124,-55,-28,-19,-51,-84,-115,-36,-68,-18,9,-32,64,33,5,-145,-113,-134,-123,96,-13,46,-31,35,-18,-25,193,75,56,10,18,-14,-5,-18,-37,-43,-100,-44,0,-18,29,14,46,-23,-100,-129,-7,136,89,76,-25,-32,-23,7,-22,-61,-75,-99,-32,-106,20,127,34,-48,-32,-56,7,85,91,152,122,80,69,117,34,41,5,-23,15,11,24,-29,-19,4,36,46,82,111,27,17,-57,-20,-21,-71,-22,2,56,32,10,-17,14,71,94,30,23,11,6],[19,-35,14,-13,-9,1,-35,-11,-19,19,-26,5,10,-39,-22,-24,23,24,5,-7,13,12,-29,-5,-17,-8,28,31,-19,23,-21,14,-43,12,22,5,-20,-22,-41,25,-8,-18,-123,-136,-102,-121,-35,-145,-134,-51,-31,-47,29,-21,-22,4,18,16,-7,-34,-15,27,45,17,-3,-33,-60,-133,-72,-173,-53,-147,-207,-168,-282,-220,-180,-92,-98,-42,-32,28,0,-30,5,-19,-176,-60,48,58,64,60,114,77,78,2,-109,-88,-14,-30,-93,-187,-179,-197,48,-83,-89,-44,43,27,2,24,-24,6,-125,77,184,20,134,96,17,93,0,-94,-92,-94,-22,34,-26,-47,-83,-132,-9,28,39,20,121,89,-47,-62,3,-20,-111,95,29,-138,22,168,178,91,-11,55,45,124,118,42,19,-73,-131,-144,-86,-34,35,62,126,121,18,-87,-14,56,-55,-81,30,32,123,115,144,147,131,28,42,110,-15,17,17,-45,-67,-50,-113,-4,65,110,122,133,57,-93,13,71,-17,-67,192,199,205,142,166,194,190,64,22,-63,-162,-83,-26,10,8,62,90,84,-6,8,89,22,10,-35,123,-64,50,148,241,199,28,59,102,134,100,-1,8,-77,-115,-33,-62,-18,32,48,127,32,21,83,-43,-58,-34,-50,41,32,210,118,181,185,23,47,18,-23,-28,-55,-39,-3,-53,-35,-28,33,1,73,106,-34,5,94,-11,-14,57,81,-1,29,212,90,115,83,29,103,-19,83,-93,-88,-59,-9,-75,-39,-5,55,49,-6,-7,-64,54,123,62,28,81,108,-1,-46,16,22,-44,-43,31,-21,44,121,21,53,50,-64,-117,-42,-57,26,13,0,-93,-83,2,21,-25,-96,-149,48,-19,10,-9,20,-65,4,-9,-63,16,48,80,49,66,-10,-196,-85,-105,-34,25,45,-31,-127,-68,-13,122,259,94,137,-134,58,62,32,31,102,16,-171,-44,11,61,65,6,-101,-209,-118,-56,74,50,111,89,-31,63,17,196,252,123,-3,-37,98,29,-136,-8,26,-116,-136,-31,-11,19,-62,14,-7,-103,-108,-35,85,59,76,55,52,66,111,186,90,-120,-7,-27,40,-67,-18,45,66,9,-69,-88,-20,-21,-34,42,-55,-132,44,46,70,56,22,64,47,174,202,187,30,-65,-81,-11,37,-25,45,201,46,-29,-49,-45,-59,41,36,108,10,-133,14,68,95,-5,84,99,53,126,155,2,-48,-13,52,16,14,94,31,110,-11,-78,-82,-59,-46,8,170,127,16,-170,-70,99,83,12,0,-14,64,73,60,-73,-60,-196,27,-151,-6,144,57,4,-26,9,-17,-68,-32,51,161,45,-53,-100,7,36,-43,31,24,-9,17,69,78,70,-47,22,-39,-30,75,85,108,-35,-57,16,48,55,-73,1,43,63,-37,-69,-122,-147,-48,-10,-27,-91,-45,-18,-179,-131,-161,21,-72,-24,130,-3,192,18,-62,24,61,76,-16,-7,-61,-48,-53,-137,-164,-79,-60,-118,-134,-193,-153,-115,-246,-328,-323,-38,-21,-42,-9,-92,70,-10,-16,0,-42,-53,-83,-112,-37,-54,-123,-109,-54,-47,-101,-158,-165,-244,-133,10,-152,-303,-129,133,15,-78,23,95,34,-153,-28,-7,-9,-58,-59,-6,-56,53,14,18,2,-71,-46,-89,-101,-89,52,25,-217,-166,-175,2,15,20,-31,137,57,-204,-173,-158,35,32,12,106,126,93,108,101,-29,-99,-48,-9,31,-96,44,-33,-108,-156,-80,-47,1,25,-17,-104,1,-42,-54,-123,-51,22,42,59,95,85,179,160,75,18,40,33,43,5,18,13,-114,-58,-52,-39,-32,-11,-1,0,281,-16,-12,48,92,21,25,115,40,-63,-76,-72,16,-110,-136,-94,-98,-134,-18,-11,-139,-63,-43,-28,-2,0,-7,-21,-4,-50,-18,8,-16,96,39,9,41,-26,34,-101,-123,-231,-228,-211,-69,-174,-78,8,-75,-91,18,27,-4,-7,-30,-29,-22,24,9,63,92,126,-62,138,30,-18,-26,-139,-150,-62,3,-167,-101,-40,23,123,138,-33,35,-16,-20],[30,33,4,-30,-12,28,25,20,25,8,-16,-31,80,67,100,53,-23,31,5,13,20,-25,-26,0,7,14,-5,32,-10,26,-31,-24,12,-2,2,-61,-89,-94,-7,-39,-28,-68,-51,-39,-15,-8,36,-107,-121,13,33,9,-17,-21,-27,-7,-26,2,25,70,59,-23,17,10,-30,-127,-148,-125,93,199,159,183,220,279,61,-75,14,36,-53,-12,68,30,1,-17,-22,-7,74,107,-47,27,9,24,-12,-5,117,76,73,62,110,243,341,240,194,137,78,160,185,96,67,50,-108,-30,-25,-40,153,135,65,-24,-131,-90,-121,-118,1,132,80,-8,99,140,347,289,288,197,113,-43,58,65,48,-107,-131,-106,-33,27,90,29,8,18,63,16,-132,-48,-5,-37,-9,-46,-16,23,183,218,137,164,110,60,49,-31,19,-143,-113,-82,30,7,-1,-108,-47,-30,-39,-63,-201,-100,-64,-1,-93,-92,-32,50,56,93,160,142,84,-45,56,-67,-130,39,-79,56,-31,-47,-84,-145,-133,-40,-166,-149,-228,-135,55,36,34,-64,-45,-10,9,76,99,167,101,45,155,1,12,136,-76,46,-135,-180,-38,-61,-124,-160,-141,-70,-115,-27,-100,28,-16,-71,-121,-97,-12,-17,-32,115,95,29,172,94,23,7,53,-14,-14,-96,-5,4,-208,-187,-54,23,-18,63,-25,-51,-91,-43,-45,-3,-70,-107,-36,4,33,74,192,159,-88,34,92,179,-28,-39,-36,28,-116,-131,-27,2,10,47,-74,-48,28,-22,11,-31,-76,-124,-46,-85,-31,121,194,92,-93,-73,95,200,-5,-235,-80,-77,-53,-46,-67,-33,8,41,-75,-85,45,93,91,-54,-15,-94,-102,-84,-81,4,179,89,-66,20,117,172,-11,-159,-11,-75,-28,6,127,24,14,85,49,102,37,85,97,-44,-30,-72,-56,-3,-64,-25,142,173,-3,141,177,114,46,-147,-166,-92,-20,-36,-16,96,148,20,27,-9,45,154,55,89,51,-68,-18,-74,9,-50,83,13,11,-2,104,-99,101,-86,-142,-84,16,34,47,144,138,-15,-126,-36,75,164,116,58,63,-23,-102,-132,-40,21,55,-94,-75,-189,-90,-120,63,-3,-62,-6,92,49,34,17,19,-1,-15,94,104,152,111,13,23,-67,-120,-93,-62,51,33,-45,-153,-174,-71,-222,-41,-37,-59,-46,68,85,18,69,87,87,47,125,77,132,62,31,-74,-110,-14,-107,-42,-69,-25,-115,-155,-193,-191,-190,1,17,-34,12,102,69,60,149,136,72,52,99,127,123,-27,-78,-88,-114,-155,-98,-82,-62,-62,-119,-319,-349,-282,-243,-129,32,-82,104,172,150,97,167,188,151,-23,41,56,-25,-9,-104,-114,-104,-184,-95,-20,-59,8,-9,-249,-230,-329,-207,9,-73,67,6,91,138,157,162,98,46,-74,-116,-6,-54,-90,-75,-45,-56,34,-66,-112,52,78,22,-60,-89,-258,-44,9,-71,-21,-16,74,127,110,101,107,23,-150,-168,-197,-44,-87,-76,64,40,83,4,-117,50,92,71,-6,-7,-162,-14,22,-18,-67,81,105,137,195,197,135,1,-158,-155,-138,-119,-83,-12,28,50,47,42,31,92,44,-13,-96,-4,-108,21,27,-31,-42,162,163,181,97,132,127,-45,-23,-63,-74,-145,-105,-57,-4,33,100,87,84,129,-5,-98,-33,38,40,-25,23,10,70,193,197,107,83,94,66,-27,3,-104,-133,-152,-65,-66,-35,28,80,31,44,47,42,-35,15,18,102,-30,-33,1,-45,28,72,20,85,232,160,107,74,2,-3,-6,-62,-85,10,14,-3,-76,-34,12,84,-7,-104,21,92,15,27,-22,19,84,153,177,172,177,-44,28,148,76,15,72,-52,-103,-40,-54,51,-51,-34,111,52,143,76,41,81,6,-27,22,1,76,196,197,233,103,-173,-70,51,40,-26,-77,-23,-50,-10,-48,-107,-183,-55,-4,-43,-19,52,-2,-12,26,-23,-33,-20,-22,-29,-82,-133,-111,-121,-109,-224,-57,-78,-164,-123,-28,28,-151,-112,-81,-73,5,10,29,8,-13,-8,-12],[-34,-13,33,-6,-14,-32,-12,14,14,-26,25,12,-100,-64,-62,-56,1,-28,7,-17,3,31,-24,-34,-1,15,31,24,-15,-11,-4,28,1,1,34,-4,44,29,49,69,102,33,-63,80,57,-4,29,110,127,8,-31,6,27,20,5,-8,32,25,12,52,99,21,-21,18,12,74,251,272,28,-100,-43,-105,-369,-209,-109,-77,33,103,24,34,56,26,-11,7,9,-18,103,34,-35,67,-3,141,143,98,153,157,8,-193,-174,-131,-239,-84,-24,73,-1,-107,-7,20,92,64,81,8,30,30,102,73,-11,51,50,93,76,-42,-37,-61,-102,-148,-88,13,38,69,45,80,102,-48,-21,-70,-102,-148,11,57,-28,-14,123,126,80,20,116,108,50,22,-50,-148,-139,-181,-118,-36,69,150,38,76,-11,67,88,-74,-137,-117,30,-41,27,-105,-28,113,18,34,175,283,200,164,-48,-165,-155,-206,-145,36,161,214,166,149,105,33,-11,-4,-49,-41,-19,89,-25,-91,52,-32,3,97,132,137,242,122,-1,-178,-156,-212,-114,105,197,264,118,139,33,25,35,18,-73,-53,-40,73,-146,-52,127,25,129,4,60,43,202,177,90,-73,-208,-166,-131,-7,250,211,107,85,-69,41,-15,1,-77,-197,-78,-35,-33,73,249,69,-81,-78,52,11,203,201,173,-48,-149,-247,-197,105,267,156,17,-119,-144,-63,-23,-65,-131,-172,64,75,-17,83,187,111,-24,-45,-5,-14,181,241,160,-22,-210,-263,-58,143,241,106,-19,-150,-80,-14,-54,-108,-78,-112,57,41,-11,-148,131,100,57,-17,-25,-14,51,169,53,-74,-168,-62,180,287,157,50,-7,-50,78,43,34,-91,-19,182,-5,-106,-5,-59,115,33,38,-9,-34,5,-32,-56,-97,-165,-102,-36,165,152,103,58,-60,8,45,141,76,-23,76,159,-18,-91,83,69,55,34,99,96,-24,-13,-64,-173,-109,-71,-30,55,145,71,32,29,-15,31,73,220,73,-79,31,77,44,71,-47,55,89,68,-36,11,-48,-82,-123,-43,-7,120,5,52,118,35,60,36,48,62,91,141,53,-50,-43,-14,18,84,-29,47,88,-28,37,-38,-73,-37,-78,-28,32,94,12,92,26,8,12,39,10,65,85,58,-40,-139,-73,-63,186,64,-3,7,85,-83,27,-66,-9,-20,-68,60,40,41,137,89,-57,-132,24,23,-16,27,50,52,16,113,119,134,197,87,20,30,-34,-21,-15,-56,-97,-55,-125,56,57,95,107,60,-114,-166,-64,19,-82,-92,-21,51,8,21,33,183,104,137,123,5,5,-158,-29,-126,-105,-29,-50,42,113,153,132,63,-173,-223,-51,1,-73,-78,-110,-38,-1,-47,-41,164,113,134,-1,27,-92,-125,-127,-116,2,58,-19,54,66,80,156,83,-206,-214,-74,-75,-123,-32,-107,-47,-8,1,73,143,97,81,-24,-73,-117,-8,-27,20,43,16,-13,-32,49,-36,-3,-48,-27,-115,-119,-68,-152,-65,-102,-60,17,37,69,71,68,97,103,45,-45,-119,-96,-40,-13,34,-15,-53,3,-56,-44,33,22,-77,-44,-13,-187,-112,-152,-64,3,56,124,10,-73,-7,69,24,24,-5,-127,-67,-70,-16,-12,-44,-50,-57,-63,76,120,-28,9,-65,-147,-132,-81,-77,20,-13,65,-30,-41,24,-5,-21,-38,-106,-181,-13,-134,-97,-2,14,-25,47,69,68,17,-62,17,-16,-35,-47,-39,-51,46,-24,-25,-89,51,-4,22,-34,-45,-83,-187,-74,-173,-187,-119,-72,-175,-48,86,47,38,-55,101,71,130,72,80,-74,-42,-59,20,-8,-51,-35,-9,-16,70,125,-63,-76,-47,-146,-38,-60,-90,0,72,184,218,50,209,320,278,87,-8,-157,-174,-7,138,5,-63,-13,-20,-27,20,97,-67,-19,-9,113,250,112,85,213,116,36,53,-84,-71,76,-18,-91,-158,-11,-94,-68,-93,17,-12,-20,-1,15,-6,-22,32,0,25,57,37,137,250,167,73,146,177,171,103,-134,-128,-52,-23,-31,-29,-49,-11,8,-2,-11],[-10,-12,12,-3,-8,28,35,-18,0,-12,33,-22,-19,11,-75,-83,8,-5,-7,-5,35,-22,8,1,-1,1,-18,1,-10,-29,-1,0,1,-28,-7,-64,-23,-68,-80,-72,-79,-15,55,10,-219,-207,-99,-131,-175,-77,-59,-53,6,-16,21,5,-17,28,13,-59,-51,-57,15,57,31,79,111,66,1,-93,-201,-246,-207,-261,-238,-80,-27,-200,-169,-70,-26,7,-10,4,27,-15,130,32,36,70,109,69,164,130,120,151,93,-78,-226,-164,-243,-151,-109,-104,-2,-100,-1,22,121,65,4,-24,5,-26,118,45,-50,-3,108,76,204,126,198,230,234,48,8,-22,-105,-86,-84,-63,-15,-7,86,177,232,220,135,43,-3,20,65,67,15,-78,-27,62,39,84,130,179,150,70,56,-7,-80,-162,-153,-187,-126,24,84,72,125,304,158,52,27,53,-111,44,-31,-75,20,153,93,129,213,175,105,110,43,-56,-104,-233,-218,-165,-159,-53,45,54,102,249,125,14,-19,29,-91,40,43,-78,44,31,101,112,187,125,27,-45,-77,-172,-24,17,-25,-67,-150,-112,-112,23,115,145,81,53,96,7,-77,44,62,-22,98,77,190,110,68,-86,-120,-163,-50,-24,22,176,86,6,-36,-26,91,-64,-90,-15,61,13,-35,-22,-56,-25,-6,58,96,157,135,21,-31,-63,-121,-56,27,44,136,299,204,124,58,-14,26,35,57,17,145,117,-3,-52,-14,2,20,99,70,75,0,-57,-50,-100,-118,-43,133,156,220,283,107,23,108,127,71,104,151,4,93,186,-31,46,-141,-11,-1,33,58,64,13,-62,-34,-121,-105,5,118,217,231,159,33,14,-7,23,-25,111,107,-66,-73,170,-11,-95,-90,-12,-58,24,49,20,-25,-18,2,-145,-60,46,107,95,39,-41,-87,28,-22,-9,19,148,92,54,-37,162,69,10,-33,-50,5,89,45,-18,11,-73,-95,-105,35,51,-33,-49,-76,-22,-37,93,42,-70,-7,164,174,73,-66,-23,152,117,-40,1,12,-16,27,-40,5,12,-126,-114,51,-10,-97,-140,-116,71,48,4,-106,-87,-42,5,69,-76,-196,-12,134,42,21,21,34,-44,-48,-28,2,54,-63,-32,57,12,-78,-167,-7,76,57,-38,-42,-18,-33,6,-1,-165,-124,-120,-16,30,32,91,37,2,-79,-84,3,-62,5,-39,-57,-10,-100,-133,36,55,59,79,-13,-84,-57,27,21,-215,-173,-131,6,67,32,52,19,51,42,-20,-72,-19,-42,-9,-23,11,-76,-76,72,50,8,55,-13,-64,-69,-65,101,-123,-185,-231,-130,25,3,46,46,15,60,-32,-103,-155,-30,12,-119,-53,-31,15,52,39,68,57,-30,-34,-50,-15,134,-136,-81,-98,-14,-2,-18,97,126,46,17,58,-21,-22,-28,-24,-86,-34,0,59,34,52,11,-55,36,-17,-13,-50,-106,-110,38,-1,0,-32,-9,75,119,-28,6,76,89,63,-61,38,29,106,113,22,139,29,-66,-45,-44,-60,-38,35,-31,-15,56,-13,9,11,-74,69,-19,-95,-40,42,119,24,-28,-19,-40,-54,50,80,38,-73,-11,-4,-21,-120,-62,10,110,41,148,17,7,-10,-48,-115,-186,-152,-53,-86,54,24,-57,33,-33,-49,-27,-51,-79,-113,-34,-72,-59,-143,9,124,94,81,105,14,7,-28,-10,27,-139,-121,-60,8,3,51,7,83,26,12,-56,-86,-88,15,-49,-136,-77,-29,-50,82,103,75,26,-29,-24,-31,-172,-110,-126,-86,-91,-27,-113,-75,109,72,-19,-88,-89,-96,-149,-55,56,59,26,41,34,118,19,-35,-86,35,14,-14,-58,159,89,142,60,78,-89,34,-37,-79,-181,-170,-125,20,-144,-51,-33,-132,-63,-87,-69,-50,-44,-74,-32,-32,35,-28,-34,-110,-166,1,55,-158,-233,-51,121,-87,-165,-264,-216,-44,-108,-82,-33,-100,-60,7,-70,-23,117,17,-14,21,-22,5,-12,14,-44,-37,-4,-11,-27,-216,-250,-280,-164,-217,-325,-102,-139,-96,58,34,-27,-6,-2,-38,24,-32,29,-31],[-4,-6,1,-35,15,-10,27,-11,23,-10,-12,26,36,35,62,41,19,-24,33,-1,10,-15,-20,23,-8,-21,31,34,28,35,35,-3,13,-33,-11,-76,-46,41,24,-54,-118,-90,16,-23,10,24,17,-136,-134,21,-2,8,0,-26,1,24,19,20,22,7,-60,-77,45,12,17,35,8,-1,-58,-82,-173,-187,-68,-44,-227,-160,-190,-19,37,-52,-28,35,20,35,-5,-5,118,88,61,107,97,127,249,152,114,36,-52,-196,-229,-236,-216,-151,-51,-74,-92,-93,-31,95,194,72,70,-25,-23,39,165,132,131,102,72,174,145,146,32,-15,-31,-137,-207,-238,-244,-126,15,31,28,-33,89,108,113,138,-51,-54,19,30,72,-55,21,-20,-22,10,-63,-68,-57,23,-57,64,35,-71,-72,-41,0,28,98,33,39,60,132,114,-95,-20,-16,17,64,-138,-51,-60,-27,-84,-139,-5,74,33,142,288,308,356,149,52,-49,-158,-110,-84,-57,-1,82,35,34,27,-15,72,62,-149,-61,-126,-156,-228,-86,16,61,111,227,327,337,245,57,-93,-61,-192,-180,-109,-58,-122,-61,-145,-37,60,-51,8,107,-13,-29,-195,-141,-151,21,89,95,111,166,157,21,15,-17,-2,8,5,-161,-50,-19,-165,-140,-142,32,55,69,-131,109,-4,-96,-78,-52,-16,97,104,89,51,-20,-103,-141,-99,13,161,224,88,-1,-24,-16,-63,-157,-10,-36,62,18,-118,79,96,-127,-68,31,100,71,83,-21,-83,-201,-183,-143,-125,88,185,246,87,48,-51,21,-78,-146,-74,32,37,-24,-139,-107,2,-7,4,94,28,4,9,-58,-98,-75,-28,8,139,120,188,133,85,34,14,70,-41,-90,-82,-32,-54,-4,-3,-68,128,22,-73,-2,-41,-83,-63,-134,-141,-67,112,132,57,22,97,20,70,68,55,20,-72,-122,-201,-151,-121,-33,-141,-110,112,-146,-93,-26,-59,-71,-102,-45,-47,-34,17,25,-58,3,-15,5,37,63,-7,-56,-114,-191,-168,-203,-24,-24,-64,-120,69,-102,-101,-4,-33,-49,-130,-57,-125,-102,-67,-106,-13,8,-21,10,-65,-9,-35,-75,-128,-127,-109,-33,31,-29,68,-66,87,16,51,33,-11,-27,-65,-130,-70,-112,-90,-21,61,15,24,-90,-54,6,-3,-53,-91,-12,-80,-117,-3,-15,62,0,139,123,120,-22,-32,-66,-36,-24,68,71,71,10,35,-24,-59,-32,-20,-25,8,97,43,65,-96,-207,-15,-25,9,-67,230,166,164,111,8,-34,-123,-57,10,97,168,30,30,-85,-60,-66,-115,-78,-88,-33,-53,10,84,-88,-60,-26,28,-59,157,175,125,206,119,-27,4,-24,38,21,54,-89,-40,-84,-48,-57,-30,-60,-26,-4,19,-64,-6,28,-6,10,-117,-73,81,123,87,77,35,-7,7,44,31,-3,-26,-81,-26,-5,-32,32,13,24,29,-60,60,-46,-61,37,-52,-7,-86,-38,87,139,113,80,96,58,19,40,-86,-66,-102,-103,-39,12,-30,-22,34,65,26,-1,69,113,133,50,-59,6,22,129,47,146,4,120,201,59,29,-47,-158,-157,-155,-59,19,27,-11,20,-48,70,40,85,119,110,115,-110,4,-30,-16,178,128,88,-35,12,108,50,-49,-35,-67,-75,-101,53,-9,-15,-93,-54,-40,110,41,54,138,165,75,-117,11,-29,30,103,118,28,-6,-34,-18,34,-62,-47,146,49,38,114,73,-1,-33,72,88,137,100,293,254,187,74,-75,35,-22,-5,29,167,-2,-47,-109,-34,-89,-44,-44,-6,25,63,64,128,136,45,129,68,181,187,271,305,162,50,17,35,-1,-28,34,-207,-93,-115,-61,-130,-94,-115,48,-89,105,137,65,148,165,152,101,86,260,223,134,58,32,-24,-26,-3,29,34,35,-27,-112,-8,-70,-187,-115,-18,104,46,58,72,113,121,159,90,63,58,178,165,28,137,106,28,13,-35,-24,16,24,-30,8,26,-75,-100,-103,-186,-246,-153,-90,-67,6,18,43,-15,108,98,124,123,112,-113,-35,26,17,-13],[-5,18,5,-14,-9,-28,-33,22,-18,33,-27,15,12,-38,-110,-48,1,-7,6,-26,11,-20,-18,20,-18,7,-34,-4,8,-14,1,-34,-28,-35,-10,-3,-10,-24,-2,43,73,99,100,-70,-55,-42,31,117,90,26,38,45,14,-4,-28,28,-25,11,6,11,6,41,-105,-74,-115,-145,-99,-24,-32,66,120,154,110,63,83,115,70,33,10,148,71,10,1,-27,-25,-32,12,59,-57,-26,-65,-80,-35,-75,100,73,13,98,-18,-79,34,80,94,142,74,-60,-32,-35,1,37,64,-3,-27,-16,64,149,6,-119,-103,-24,71,67,45,21,62,-11,-90,-48,18,-14,26,95,102,46,-52,-102,-200,-50,56,120,-29,-6,49,-36,-65,0,-27,-9,124,65,9,-7,-111,-66,-109,-77,12,-17,53,51,-23,86,-22,1,-106,-75,138,80,26,83,1,29,10,42,154,106,91,36,23,25,32,-13,-69,-27,-78,-27,-3,-1,-149,-95,-5,-20,-121,-55,-34,40,11,130,21,12,102,72,61,60,45,12,30,28,23,17,-33,-68,-63,-22,-49,-56,-143,-94,27,1,-144,-47,38,87,-17,116,-21,-4,-1,9,16,53,73,-40,-35,-7,17,8,9,-46,-32,18,-41,10,-52,-78,40,107,-142,-128,16,-29,17,22,-136,78,64,59,100,96,64,-39,-39,1,-33,-36,67,54,1,-48,-25,-19,-16,2,26,-2,-202,-15,34,155,39,19,16,40,90,129,124,43,2,-42,-84,-97,-149,17,68,129,106,36,27,33,-110,-13,-108,-118,-115,37,38,141,-16,41,-5,71,74,68,82,87,19,-8,-47,-57,-51,-19,11,128,101,-33,-14,49,-27,-11,-111,-186,-224,-93,-190,96,15,-33,-35,109,65,79,87,40,-27,-4,-103,-137,-61,-119,-77,-12,9,-17,-39,2,-41,-19,-112,-148,-128,-103,-22,117,-32,70,47,124,133,131,160,22,9,7,-151,-93,-195,-128,-164,-121,-27,-56,19,-51,-49,1,82,-1,-38,-41,4,-45,62,33,5,115,184,76,128,48,54,15,-36,-150,-206,-215,-149,-94,-72,1,41,25,-25,-3,103,105,153,74,-10,-66,54,18,-21,57,160,89,132,128,105,89,46,31,-111,-76,-45,-38,-81,-79,3,50,-8,45,52,94,172,103,37,-21,-1,-1,77,80,13,-29,113,112,145,139,116,80,-73,-4,59,23,-63,-40,13,31,12,61,126,6,211,101,37,-62,-21,9,95,80,-45,46,81,133,108,81,76,51,31,62,47,-76,-160,-117,-10,45,57,134,122,54,213,-35,-50,-149,78,-22,54,66,-77,-20,77,68,-15,6,22,-35,63,66,-39,-79,-179,-157,-45,64,133,127,108,71,139,-181,-146,-84,-1,-17,65,48,-81,-113,6,41,-75,-24,57,58,102,52,-10,-130,-150,-158,-38,30,202,177,161,97,87,-294,-186,35,-34,-101,32,68,-91,-159,-24,29,-69,-30,8,70,74,64,2,-46,-124,-140,17,62,227,198,235,187,67,-69,-67,-22,-17,78,103,33,49,-203,-143,-7,-61,-19,-42,13,58,37,13,-73,-39,-41,52,151,181,155,182,97,38,-17,-118,-20,-6,58,90,32,19,-62,-155,-13,25,-6,8,-11,24,-11,18,11,-5,3,132,120,246,158,240,131,23,81,49,-25,-19,-17,114,112,65,-4,42,-49,-28,-31,-18,-33,-28,28,-6,38,11,74,139,130,198,227,132,42,46,101,102,33,8,35,80,145,29,2,13,5,-43,-18,39,51,-24,-52,25,-5,43,106,100,64,187,172,75,47,-79,36,8,25,-1,-24,-46,202,53,-53,22,76,86,44,45,45,14,24,-9,-84,-218,-262,-74,6,-5,17,-74,-109,-124,-17,52,34,-20,2,8,-30,-238,-255,-209,-103,39,9,-28,-70,-68,21,-108,-70,-67,-267,-198,-102,-56,13,-77,-71,40,-24,24,-19,6,-34,33,-25,66,38,59,74,55,53,30,-66,-51,26,-123,-135,-47,-39,19,56,19,-10,1,-93,6,-22,19,9],[-31,-21,-7,-33,-26,19,3,5,-32,5,33,-4,-13,-28,-66,-66,31,-10,-31,-14,-35,34,2,-4,-34,-16,20,4,-17,-21,-22,30,-28,23,-53,-30,-103,-51,35,77,57,-106,-129,51,25,45,34,-20,8,42,85,64,-35,25,-27,-22,0,33,7,38,45,93,-35,-63,-42,0,-12,31,5,52,83,27,198,207,83,171,124,201,150,98,16,2,29,-33,32,-1,-106,-21,-78,-16,-13,22,199,119,61,153,83,59,126,208,189,97,13,21,4,39,14,-34,41,4,71,31,-24,-2,-55,74,-40,-109,-48,73,-5,-29,18,-8,-127,-43,-76,13,64,-18,8,-109,-113,-29,-4,-41,-8,20,12,106,-24,-4,-16,-11,-46,-2,-12,43,-32,-33,-6,-127,-188,-76,-33,36,-18,16,4,27,-6,15,-12,-13,-20,-81,111,75,17,14,1,78,70,83,116,13,-75,-32,-25,-36,-107,-52,-5,26,61,77,101,19,45,152,-13,-131,12,-65,-15,31,18,22,41,138,151,137,27,-33,19,-99,-75,-67,-19,3,111,55,140,100,31,109,84,137,-22,-133,-96,-77,-49,75,-81,49,-11,-138,15,7,-141,-65,25,-127,-52,-89,-73,-41,68,81,155,35,40,70,70,62,-10,-220,-174,-135,-144,-104,-18,21,-131,-97,29,14,-110,-51,-31,-68,28,-112,-124,-146,-40,103,116,-11,-36,-33,78,12,-82,-178,-212,-251,-97,140,19,-39,-16,-62,56,20,-109,-38,-28,-11,-28,-77,-248,-175,-79,-18,75,34,16,-17,54,-45,-34,-94,-120,-26,-23,65,14,100,64,79,79,-111,-48,-116,-20,-12,2,-80,-218,-224,-151,-73,40,78,29,10,-22,-13,-70,-52,-62,-193,-244,13,-7,41,54,52,-15,-53,40,79,128,92,103,22,-144,-222,-106,59,17,1,50,-41,-81,-117,-93,-99,-195,-185,-91,86,-74,176,40,78,89,70,97,166,80,84,87,-5,-130,-174,-100,-84,-75,-63,-29,-111,-212,-133,-75,-65,-30,-127,-78,-126,-32,104,-1,99,202,81,147,120,200,156,30,-28,-51,-131,-153,-33,-105,-65,-28,-101,-71,-96,-56,70,72,-95,-56,-80,-14,50,-67,87,96,64,77,142,171,74,-14,-94,-78,-161,-153,-104,-85,32,-6,11,58,-19,62,77,76,-56,10,-123,-5,-3,15,173,123,147,64,32,50,-118,-111,-123,-139,-66,-45,-68,14,2,19,112,136,68,22,-29,19,-22,-77,-36,-20,19,154,121,207,128,-54,-67,-59,-150,-137,-118,-39,-5,-30,39,73,109,94,110,73,-3,9,-89,-63,-13,-100,33,16,-1,140,168,158,-3,-107,-120,-116,-187,-140,-80,-1,52,103,136,119,111,168,95,15,5,44,-101,-112,-76,9,-54,3,93,49,87,8,-39,-130,-68,-143,-133,-130,10,43,89,125,113,79,79,174,65,55,56,-7,-22,14,-114,-47,38,20,125,161,46,-76,-63,-106,-32,-84,-82,-49,-31,24,135,134,43,28,111,165,70,35,70,5,24,84,21,-120,-16,-32,-38,85,3,69,-1,-99,-38,28,-32,-5,-41,82,75,51,75,72,21,84,39,15,42,-39,42,99,60,-136,-27,-16,-12,6,-38,16,-3,-77,-33,14,3,-40,-43,4,55,42,72,51,-2,15,-30,-121,-26,26,77,125,38,-31,38,6,-12,14,83,14,21,-78,-11,-17,-84,-35,-24,-91,-10,27,67,25,-28,8,-73,-16,45,-50,52,161,37,43,16,-16,-26,41,92,186,180,3,0,19,-34,-86,-25,-20,-12,27,163,95,142,85,-13,-1,-21,-135,82,163,-38,-46,12,6,35,15,25,185,216,56,101,81,-74,-66,-31,15,-6,47,126,139,185,220,155,32,-100,-115,0,47,-63,-29,-20,2,8,31,31,128,59,133,185,89,-36,57,105,169,155,127,141,190,261,226,112,-66,-104,-166,-78,85,4,-28,-28,35,2,-16,34,-8,56,33,58,64,-10,97,225,62,139,194,0,-40,128,103,-88,-101,-82,-131,-33,8,1,3,-21],[19,-22,27,-17,2,16,-10,13,-35,27,5,-1,57,48,10,51,22,-35,25,-28,-6,14,-20,31,33,-8,17,-27,7,27,-9,16,31,-6,13,71,77,91,42,45,34,148,182,135,154,76,56,29,67,76,67,66,15,18,-9,-32,33,35,16,-34,48,43,17,76,120,114,95,136,42,133,328,337,208,154,184,-9,-113,-73,-38,-29,-13,-21,33,-20,-12,12,-127,-49,67,0,85,58,113,153,-49,-103,-107,-12,25,70,109,89,6,32,-88,-80,-75,-91,-14,-13,-26,-22,26,2,-136,-109,-136,-9,-14,55,189,172,69,-19,-70,-15,54,43,66,20,-99,29,-19,-108,-181,-167,8,15,114,-18,-1,19,-68,90,70,16,-39,63,64,6,-5,-66,-3,61,82,37,35,50,-30,-73,-105,-94,-114,-83,-141,-32,103,-30,4,-36,4,-67,-85,-141,-100,70,-9,10,-95,-36,39,78,98,115,107,36,54,-14,-87,-21,-100,19,-54,6,176,87,-21,-9,-43,-131,-81,-53,-55,-40,-52,-83,-113,26,70,45,55,122,21,-44,-15,-44,-56,-47,-50,-71,-147,-73,114,99,68,-1,-165,6,28,45,4,-70,-48,-36,54,-3,-54,10,33,43,-75,-59,58,58,5,-14,-94,-41,-40,54,76,47,-17,-54,-94,100,100,85,-40,15,-39,39,98,-11,-17,-33,14,-83,-4,34,41,-2,4,-33,-66,-36,17,-51,-75,-100,14,22,-4,35,108,121,43,74,-24,83,110,-4,-75,-15,-58,-25,-37,-74,66,61,61,-54,-74,-133,-114,36,-64,-72,-14,236,-2,40,88,139,95,-27,-1,78,37,20,-62,-28,-23,-80,-92,37,43,68,77,-26,-15,-135,-198,-122,-18,21,21,108,-15,4,170,128,7,-7,55,96,-43,-10,-114,-13,89,63,-17,38,111,99,59,19,-24,-135,-200,-173,-89,112,72,1,-12,92,66,29,-60,39,6,27,-65,-79,-172,-78,-33,14,83,89,76,83,-24,-31,39,-20,-107,-58,-93,161,-51,-51,28,163,19,-137,-79,-35,-78,-42,-40,-115,-144,2,31,-43,-4,-79,62,-18,-109,-49,28,53,75,-14,20,96,-24,5,40,135,14,-155,-75,-55,-61,-90,-94,3,53,91,60,-61,-2,-47,2,-71,-20,-50,-94,17,37,92,-85,-47,25,14,97,143,68,-135,-79,-106,-133,-101,49,150,155,68,17,-6,76,0,-83,-111,-39,-103,-93,-31,-79,-95,-156,-109,34,-7,16,213,-4,-41,-108,-143,-152,-122,42,165,168,38,13,15,53,32,-7,-111,-60,-67,-150,-68,-77,-97,-54,-9,84,13,125,174,39,-27,-103,-173,-209,-83,84,184,178,69,-38,21,-70,-52,-82,-27,2,9,-115,-195,-171,-117,-77,-23,5,66,-99,49,-45,-65,-81,-129,-177,-123,135,193,168,59,-39,-28,-79,-42,-31,-42,23,-44,-124,-41,-55,-68,4,12,18,19,-12,-130,-105,-103,-102,-182,-211,-156,80,171,188,52,20,20,-28,41,10,31,79,-2,6,13,24,26,64,11,40,23,-68,-182,-70,-57,-81,-188,-240,-108,4,47,145,117,35,0,-21,29,-11,88,51,100,111,39,92,40,122,-8,13,-37,-67,-69,-164,-120,-133,-149,-102,-132,-61,-96,20,71,73,72,58,3,-17,8,99,120,99,83,95,-32,-54,20,-10,29,18,20,-4,-171,-223,-175,-107,-132,-90,-32,11,23,54,110,106,75,94,139,66,44,26,132,116,26,-74,27,35,-12,75,-49,-169,-213,-298,-301,-197,-104,-133,-132,-30,1,0,78,84,-14,14,43,-12,-53,-93,37,61,63,55,-17,-13,4,37,33,-84,-143,-139,-78,-90,-202,-198,-248,-163,-87,117,44,30,137,111,92,163,67,-80,63,70,2,19,26,-36,14,-25,19,-42,-47,-68,82,17,47,85,84,126,3,151,5,137,218,290,145,176,144,64,31,-38,-8,23,19,21,-25,8,-10,8,-20,-51,-107,-16,44,33,166,51,75,169,127,112,91,164,93,121,127,165,105,-16,30,23,-14],[-29,6,-22,-9,-35,6,17,-20,-20,-29,19,-16,13,3,20,42,-2,35,-23,31,-13,-2,-16,10,-25,-17,23,-17,-23,6,25,22,25,38,11,48,11,24,-5,-54,-32,-84,-93,97,83,17,91,29,31,35,31,39,-1,-7,14,16,-36,10,2,55,99,-1,24,7,-67,138,175,180,74,-9,-102,-140,-67,-118,-127,-34,-70,-90,-16,83,-23,-48,22,12,23,21,81,148,159,59,40,23,140,62,151,24,11,69,44,38,100,45,-55,6,-8,-20,-111,8,44,32,58,31,8,31,114,222,116,100,24,34,95,-26,-5,36,51,73,8,94,66,18,45,9,-100,-54,-172,-101,91,-41,-31,-9,-27,23,122,75,173,20,-8,74,-8,-8,14,48,103,174,118,139,29,77,51,19,-93,-87,-173,-124,31,51,101,19,6,48,11,107,118,-12,49,-28,7,7,70,38,36,76,64,48,75,53,54,-53,-189,-160,-232,-194,6,95,44,-63,-34,104,32,105,218,100,86,84,36,96,41,-2,-36,-17,-3,29,51,85,87,-58,-134,-189,-208,-212,-48,64,-75,-35,-9,-3,14,72,188,79,58,121,15,17,-28,-110,-162,-100,-64,73,129,143,130,30,-168,-310,-148,-169,-75,-30,-10,36,-32,0,39,78,65,101,30,33,-50,-159,-197,-142,-135,-79,73,200,262,261,63,-26,-221,-256,-195,-123,-23,-23,37,-60,20,20,48,155,38,71,33,-48,-139,-198,-104,-109,-52,58,172,222,329,228,-44,-195,-287,-201,-62,-66,-15,31,58,-14,-48,144,0,115,-2,-60,-110,-173,-127,-58,9,60,100,97,135,131,108,22,-50,-126,-58,-81,-59,-29,40,-139,60,-91,-26,100,20,58,-22,-92,-107,-57,-73,85,122,135,80,99,160,18,-54,-168,-67,-106,-137,-78,-50,67,255,90,19,-98,-58,90,4,41,-113,-174,-54,2,38,103,101,66,115,170,95,34,-15,-42,-33,-45,-12,-29,-50,46,144,180,50,-90,-15,81,62,-16,-84,-127,-117,-95,-33,5,-40,-14,44,138,98,14,-84,-54,-65,-15,30,83,110,70,32,107,-129,-92,-43,-27,107,6,2,5,-108,-87,-132,-169,-131,8,1,46,77,84,39,27,-16,32,20,55,143,139,107,109,28,14,-8,-5,120,51,-121,-21,-156,-79,-78,-49,-96,50,70,24,65,56,31,-9,-10,-57,-2,43,128,91,162,28,-83,13,-12,-13,81,-41,-91,-67,-106,-49,78,-23,-89,66,83,186,60,-38,47,46,-3,-24,-85,55,109,105,43,-145,-58,23,-6,60,55,-7,-119,18,2,1,49,-34,22,126,34,5,-58,-38,4,-47,-66,-76,-54,34,134,96,-28,-235,-131,-32,1,0,3,134,-95,-13,-14,-39,-77,-93,42,-7,11,-81,-72,-74,-84,-52,11,32,2,41,65,67,-8,-60,-90,-66,-32,74,79,267,30,-47,107,61,3,73,12,-49,-115,-57,-14,-85,-79,-52,5,66,60,-5,-39,14,50,-53,-102,-21,11,58,180,271,37,55,111,66,7,-3,-49,-99,-137,-104,-8,-9,4,-8,41,50,-63,-137,-19,-28,-73,84,183,16,-39,11,129,263,170,39,149,110,50,-14,-6,-39,-95,-46,-1,-27,-25,34,71,20,-19,-33,11,-66,-74,26,31,24,29,7,-10,228,122,136,0,104,102,27,61,24,-50,50,-31,-29,-65,45,132,89,49,-37,-70,-50,-1,59,32,-3,-14,1,-4,74,313,324,126,220,91,54,103,-23,-1,45,31,-30,3,50,111,164,112,72,31,12,82,20,75,-33,-14,-26,-19,-16,78,43,68,148,57,134,65,40,50,85,-1,-50,-106,-60,200,225,200,90,43,-2,56,14,88,-30,7,11,19,-6,-124,-199,-225,-164,-126,54,141,140,22,32,42,-87,-31,117,332,206,58,-146,5,15,18,-4,15,15,18,31,-21,-6,18,69,52,32,68,44,48,105,5,16,88,131,-44,-9,72,-131,-77,-123,-24,47,26,30,1,-16],[9,33,-18,-2,18,32,-13,-31,-33,3,14,-28,-20,-52,-109,-95,31,30,21,15,25,20,29,-26,-1,-35,-33,4,7,13,35,-6,-35,-28,-68,-70,-41,-112,-48,-24,-101,-81,38,-29,-93,-38,-68,-163,-167,-83,-61,-12,-31,-26,3,20,-4,-16,-26,-19,-74,-24,-65,-138,-143,-305,-320,-342,-149,-89,-175,-61,-54,-55,-73,10,53,-8,-56,-85,-91,-32,28,0,17,-18,36,4,-51,-48,-73,-72,-42,-124,-8,-78,-69,-73,-57,-11,-16,-72,-78,-103,32,-7,92,66,36,14,10,3,-17,-6,47,110,-47,26,-53,49,24,4,-56,31,72,46,-28,-27,-57,-34,-87,-89,-52,34,152,124,120,78,-38,5,-10,-30,22,23,14,88,146,92,31,-30,-1,60,-74,-75,-31,16,-48,-124,-58,-14,13,52,53,61,172,-23,-93,4,-12,-10,10,-22,-26,77,55,-39,3,-4,17,-105,-79,-39,34,0,-25,8,68,63,12,-8,22,-6,58,60,-8,45,-23,-32,-111,34,-42,66,-11,1,-44,-82,-77,-158,-53,-19,18,89,128,130,170,92,115,83,119,180,63,49,-15,49,59,-76,-83,-27,14,44,-30,-122,-118,-99,-137,-85,-25,72,34,67,180,108,135,53,32,55,91,216,155,25,18,-8,-31,31,-74,-97,-1,-37,-109,-203,-105,-42,-24,-12,10,64,25,32,75,20,19,45,-42,65,73,103,110,112,117,102,-22,-26,-30,2,-8,-150,-153,-110,-34,52,43,54,81,111,113,17,32,16,-44,4,-4,75,119,91,-36,77,48,85,3,55,23,-1,39,-83,-122,-22,5,-12,1,-17,48,98,51,89,109,70,-30,-7,16,27,46,11,-164,-18,-13,21,-19,36,47,-27,35,18,-1,73,47,78,70,-11,38,89,25,137,79,57,28,37,62,31,-43,4,-184,-38,45,-19,-23,-1,-48,-124,19,47,93,82,87,34,-39,11,58,51,41,86,134,93,52,20,14,51,-63,-63,-133,-84,-92,-161,-2,37,-73,-135,81,67,74,21,64,26,-80,-34,-8,-55,-26,21,47,59,0,65,16,-37,-89,-47,-123,-149,-241,-59,-3,42,-95,-81,90,30,31,-22,19,-50,-22,0,37,-136,-161,15,27,13,28,-47,-103,-115,-71,-64,-184,-209,-58,-140,15,-19,-85,-47,48,-18,-13,-1,83,41,-19,-38,7,-87,-139,-19,-15,-44,-10,-88,-105,-141,-135,-213,-175,-334,-221,-158,18,33,-83,-45,-25,-36,-19,15,11,57,-26,-24,-40,-27,18,-11,2,-92,-75,-76,-98,-57,-7,-12,-41,-304,-34,-268,38,-10,-41,-68,17,-42,17,-34,1,116,63,41,-24,-39,-75,-61,-77,-100,-86,-56,-26,-30,-20,-65,-110,-301,-146,-134,-32,25,-38,-1,-10,-52,70,-44,0,91,29,-93,-21,-31,-66,-88,-85,-102,-64,47,-41,-30,-87,-92,37,-209,-258,-4,31,-23,-62,-9,7,-24,72,-33,-39,-12,-23,-166,-173,-52,-71,-134,-92,-65,-61,43,-7,-37,-51,-113,-48,-192,-137,5,20,25,1,-96,-15,22,5,-28,-57,-36,-129,-42,-79,-84,-59,28,-3,18,21,43,-35,-76,-59,-19,-44,-120,-134,-6,-31,-15,-46,-62,-40,-25,-135,-55,-32,-38,-76,-32,15,52,15,104,101,81,-9,-64,-64,-50,-66,67,141,54,75,2,-16,11,17,44,75,32,-25,-95,-22,110,5,-27,57,27,35,89,174,186,87,1,32,61,16,25,86,78,-11,3,28,-3,138,133,267,105,55,70,112,191,210,88,130,87,94,203,111,190,21,2,95,107,23,15,-179,-41,-30,-29,27,-21,4,46,-118,-70,136,207,274,312,205,154,148,199,165,120,71,28,35,164,57,-37,0,75,-77,-82,-48,32,26,-6,-20,62,68,77,56,109,42,-3,63,75,-25,-102,79,68,73,4,-117,-73,56,-49,-48,-41,-41,17,22,24,-10,-17,-5,18,27,47,139,138,73,-21,134,118,-8,-5,22,74,109,29,94,59,36,-51,-31,-25,-9,-3,10,11],[-7,-20,21,24,-15,-2,18,30,-12,0,-4,34,-55,-61,35,12,-26,18,27,29,-30,21,0,-29,-32,-14,-35,-28,33,-9,22,-29,3,-13,-34,-96,-73,-133,-104,-23,12,-60,-37,81,-23,25,70,180,143,113,51,-36,-8,20,30,-15,16,-20,-9,71,88,14,-78,-103,-100,65,-62,-132,-45,34,27,-15,31,-33,124,193,57,18,77,66,-50,-13,28,-4,-17,-9,-57,95,94,-14,-88,-55,-191,-125,-161,-96,44,45,38,17,-98,77,58,-7,15,69,88,6,9,-1,7,6,3,5,-74,-41,-108,-78,-38,-42,-28,-81,-100,-133,-70,-13,48,-58,0,-23,-33,-52,-13,66,19,140,168,98,65,-41,-3,-8,-39,59,-35,-23,-51,-37,-109,-121,-154,-73,73,88,112,-4,-19,76,-69,37,99,-40,24,-46,-9,16,8,-93,-12,-18,83,106,4,14,-45,-7,-144,-165,-117,-76,21,5,59,-11,15,34,39,37,113,39,-46,19,-27,79,96,-12,-13,-111,26,85,42,-20,-73,-108,-155,-103,-50,80,69,-2,-27,16,-38,-61,-15,-8,-17,16,4,62,13,65,131,9,38,-72,87,-41,41,-29,-18,-78,-166,-145,-41,100,108,69,-29,-49,-35,-18,-14,-48,-68,21,-10,104,237,198,116,79,1,-34,110,-11,-81,-26,-87,-133,-142,-130,-92,98,102,54,76,-23,47,61,32,30,-4,58,68,151,334,238,81,-116,-41,42,144,24,-232,-7,-65,-64,-125,-134,28,86,124,60,85,-7,55,28,23,-32,31,26,30,120,192,124,55,-84,-51,-34,30,-148,-173,24,48,-50,-136,-170,-56,-15,37,35,39,55,77,-10,-9,-90,13,-28,-37,113,248,234,233,6,-13,38,2,-103,-104,52,41,20,-31,-64,-98,-37,-13,90,75,95,38,35,-73,11,70,51,16,83,19,14,71,-48,86,-12,-90,-108,-91,-49,-61,-130,5,-4,-103,-28,55,75,114,37,-25,-12,-173,-41,-13,-42,-86,7,13,-40,57,-18,80,-75,-38,-45,-2,-39,-127,-81,-51,-47,-43,-40,-1,33,104,61,-25,-52,-102,-99,-22,35,-26,-165,-39,-129,42,19,79,-33,27,-42,48,46,-3,92,51,4,-37,-57,-44,-9,-8,-50,2,-29,-68,-176,-25,-60,-46,-131,-43,-174,-70,-4,38,-51,-38,-100,47,79,115,34,-4,-6,-23,-22,-66,2,10,49,-56,-9,-16,-141,-97,-69,-79,-152,-87,-164,92,84,-3,-19,-49,-106,9,164,181,90,40,36,-48,-19,-94,-62,-15,137,45,110,110,-117,-120,-125,-114,-160,-147,-71,33,67,-2,25,-26,-206,30,66,66,100,43,-35,-33,17,15,-78,-14,74,88,127,100,-71,-116,-147,-136,-73,-101,-45,79,40,-18,21,-11,-140,-17,40,65,26,21,-33,-20,-38,-9,-62,-28,32,124,98,80,-32,-150,-183,-162,-95,-22,-14,87,1,-13,21,-133,-93,-20,-4,11,-57,-36,-67,13,57,-20,8,-79,-1,79,139,99,-9,-122,-92,-108,-58,50,3,43,55,4,-13,-169,-37,-37,-52,-12,-2,-21,27,-1,57,-7,-5,-20,10,70,81,26,-58,-139,-95,-44,14,39,-67,-66,-4,0,-14,-123,-79,-56,-43,-62,-31,-32,-11,18,83,26,34,48,-4,16,23,-78,-94,-98,-50,-14,7,55,-102,-122,25,-11,-2,-141,-140,-68,-47,-85,-28,-68,-118,-138,-9,89,84,73,112,-10,-103,-103,-105,-117,-6,-44,-40,-31,-90,-161,-30,-10,6,15,-92,-116,-92,-103,-75,-10,-35,-131,-16,106,86,30,107,103,-56,-105,-165,-45,9,-28,-64,8,-28,-24,-32,18,14,23,-83,-163,-173,-148,-102,-21,-17,-20,-1,4,9,-10,-19,49,120,42,-39,72,19,6,-66,-125,-9,-70,-25,-35,-18,-14,25,-86,25,34,60,-19,88,9,90,102,-49,-58,7,102,73,65,-68,-71,110,91,16,-89,35,34,-12,26,-16,16,-34,27,54,24,-24,-23,17,-79,63,67,-10,187,176,70,56,145,51,84,183,90,94,-19,-27,-17,-22],[-11,-32,25,26,4,16,-19,6,-29,-22,0,6,54,72,80,27,9,-28,-24,15,-9,-20,-9,-30,-9,-20,5,-9,-11,-12,-30,-28,32,13,65,33,62,107,128,40,34,17,-56,-60,80,76,78,145,103,82,93,8,-17,13,-15,-18,12,34,-23,-59,-8,18,85,85,184,240,214,231,222,87,314,167,40,106,108,-25,27,164,191,130,60,2,14,-15,-18,-10,-107,-51,65,158,215,74,54,123,38,66,33,108,105,88,46,-16,-37,-18,-89,142,97,145,95,14,70,1,26,-53,-119,-178,-127,18,53,9,-5,32,75,35,36,91,154,-10,33,6,26,67,101,93,10,48,-21,-34,67,87,7,30,-84,-27,-103,-163,-108,-31,-86,-49,61,41,87,74,66,29,19,62,63,106,158,95,66,113,93,22,55,124,-21,-42,52,-87,-2,-196,-112,-54,-43,-60,-50,-2,59,38,-24,12,-4,-12,-134,-69,-7,-76,53,61,-6,78,20,84,-2,-67,110,-81,-26,-203,-84,-81,-16,-40,-3,17,-10,-8,-63,-38,-74,-53,-149,-114,-151,-97,56,-104,16,160,-22,42,136,109,59,-29,-127,-143,-40,-5,-15,61,13,31,15,22,-103,-117,-40,-36,-113,-88,-95,-48,-71,-179,-7,157,38,-22,14,-136,-34,44,-120,-76,4,96,41,30,-41,-45,-71,-69,-110,-74,19,-24,-81,-8,20,-4,-141,-132,33,38,-45,-116,24,-57,-127,-6,-72,44,108,97,94,120,7,-80,-34,-153,-124,-88,-47,-65,-44,53,40,-37,-142,-39,80,6,-39,-128,-9,-47,-106,52,-123,32,109,159,101,125,22,96,55,-15,-73,-109,-115,-62,-34,37,21,10,-44,-36,-1,146,19,-127,0,-33,-48,-12,-82,7,88,136,62,63,107,142,60,-53,-70,-148,-75,-32,-83,15,-27,49,27,78,90,-17,-128,-142,65,-2,-32,-52,-177,-40,126,121,96,58,105,106,96,48,-76,-22,-41,-58,-40,33,-23,-11,74,74,-9,15,95,131,49,5,-8,99,-153,15,140,135,69,52,102,159,118,-7,-15,14,67,25,3,-55,-91,-18,29,-1,-37,228,275,70,25,-17,103,156,-95,-13,25,92,72,20,123,133,64,116,30,56,139,58,-22,29,-80,-30,-45,42,19,337,204,138,-6,-50,89,16,-63,-55,52,31,47,74,132,125,83,57,85,79,171,132,21,42,-14,8,62,101,116,493,332,94,-23,-42,87,-30,-36,10,17,-13,120,115,111,124,62,81,81,90,111,1,-2,4,0,88,51,119,12,257,30,44,-148,-61,-15,22,81,23,83,51,88,109,57,13,64,148,97,42,-28,-24,19,-5,0,34,28,120,108,277,98,148,19,-143,-51,-7,48,48,34,107,41,54,62,16,11,84,112,88,-6,0,57,33,2,36,96,210,-1,88,219,47,-13,-136,10,-12,-1,66,75,93,0,81,115,115,92,47,42,140,5,47,83,-11,14,33,78,84,-14,72,75,-77,36,29,4,44,103,81,-5,61,34,101,72,53,74,74,79,90,34,88,39,39,21,120,121,121,-26,25,58,-37,22,-31,21,116,153,129,-24,30,-26,0,115,47,34,36,-38,-4,22,50,85,161,90,79,76,28,-55,-93,-88,20,2,-12,18,21,135,97,-20,-151,-28,16,-40,-107,-60,-83,-27,5,-2,2,82,55,110,162,91,81,-30,-49,-49,-7,18,30,-40,-40,16,-22,-183,-187,-138,-87,-63,-30,-151,-85,-158,-102,10,-67,73,10,13,17,-6,24,116,110,63,-34,21,0,55,-71,77,-40,-294,-216,-271,-223,-233,-211,-138,-195,-155,-8,77,-3,-33,-125,-53,-33,-21,48,21,68,62,0,23,-17,29,16,106,70,86,56,114,-144,-268,-56,55,-33,-5,39,82,68,-74,-142,-81,-96,-111,-83,-87,15,30,-6,-9,29,16,-31,-5,20,-45,-63,-63,9,36,68,43,60,20,133,18,-114,-44,-23,14,-65,-103,-124,-31,2,22,-21],[-4,7,-15,11,10,-24,-29,25,34,10,-33,11,-20,-5,110,48,-20,-10,-25,-16,20,14,7,9,-28,8,34,-28,-32,24,-3,-12,10,16,-26,-7,-54,-20,-37,-45,-35,-94,-106,48,122,28,-65,63,78,19,-5,-55,-19,16,5,-26,29,14,-27,-20,-109,37,47,-2,-27,-23,76,92,11,-10,-121,-64,24,-14,-109,-207,-56,-189,-117,-41,1,2,7,-26,-21,4,74,-1,-93,-23,-25,-84,19,44,128,-3,-5,33,-65,-42,-45,1,-7,-56,29,-61,-81,-10,-61,-90,-131,-19,-34,-4,112,120,73,0,-49,-13,86,57,125,87,111,48,45,99,12,-18,-64,-31,27,-94,-94,-155,-151,-24,-28,-111,16,-28,138,12,45,-54,-15,3,-42,-42,38,47,33,5,35,100,39,16,46,63,29,9,-52,-42,-41,94,-58,-100,31,60,-8,68,-9,-106,1,-18,-19,24,43,-24,-36,42,35,84,111,96,56,-74,-64,-9,-202,-102,-131,-6,-32,-58,-27,77,-71,-8,76,11,70,8,23,14,5,-68,31,53,65,93,54,24,97,3,5,-84,-175,-71,-19,-42,-10,-104,-188,79,19,79,116,23,100,-58,41,4,5,-62,-6,78,18,7,90,69,123,76,-28,-53,-64,-187,-278,-67,81,44,28,-37,77,84,30,69,39,-54,-22,-58,16,-65,-20,-3,3,68,82,132,133,116,77,-17,-112,-127,-240,-8,72,-110,9,-9,2,133,-16,15,34,-49,-22,-59,-32,-31,-66,-20,47,51,179,126,159,150,126,-46,-38,-92,-289,29,67,60,18,-125,45,39,66,-11,-76,-77,-57,-35,-31,17,-91,-52,9,62,82,153,163,225,218,-55,-50,-92,-166,88,79,18,-42,-29,119,-53,67,-38,-95,-23,-110,-80,-30,-84,-41,31,36,61,68,105,105,118,46,-87,-147,-71,-54,-50,48,-40,119,-123,-4,-59,-3,-56,-37,-27,16,-88,-105,-55,-7,29,115,36,74,56,96,9,-32,-44,-12,-104,-148,-60,46,-55,-34,-62,-19,62,-53,-105,-33,-63,40,-126,-130,-2,-31,63,154,66,16,74,35,-60,-82,-60,-34,-34,-15,13,83,-89,-54,54,163,77,37,-10,-8,-46,21,3,-84,36,-13,111,202,113,89,-9,-54,-46,-102,-63,20,-29,-4,55,-59,108,17,93,151,114,27,-13,22,-3,-24,40,18,19,37,92,90,42,17,-64,-66,-47,-86,-29,14,31,81,119,-69,89,6,3,80,170,95,-66,-92,1,-33,-77,-92,-23,78,102,26,-80,-94,-20,-45,-45,-62,-27,-37,45,3,47,37,139,125,13,110,153,-31,-1,-62,-91,-68,-132,-3,64,-25,13,38,5,15,-43,-6,77,-29,42,80,2,52,120,85,125,30,156,61,18,-44,-59,-41,-39,-16,-34,0,-38,-48,54,-35,20,9,12,58,79,72,18,39,26,-54,0,101,111,5,132,33,99,32,-100,-36,37,21,0,20,-45,-49,-25,8,0,43,2,30,28,48,21,6,18,-35,-5,14,42,2,17,82,105,7,-95,-2,91,44,-94,-41,-106,-78,-42,-46,12,43,-12,80,-11,-14,-18,34,-35,-80,66,-94,36,-6,40,65,63,28,37,62,55,23,-9,-22,2,-27,14,25,-31,-29,-7,49,-52,21,27,81,22,-17,69,-82,36,-31,-28,154,86,-41,51,13,79,25,-19,-5,63,-15,63,-3,-19,-27,48,95,-24,25,80,88,102,4,23,-4,1,7,13,-83,92,194,101,42,37,-29,-5,69,31,21,1,-26,-7,-3,3,9,21,-18,18,92,103,-38,11,-55,33,-6,21,73,-135,-40,30,32,-24,50,65,58,-33,74,57,21,-14,29,31,64,96,133,-107,-145,-102,-50,-13,-71,6,1,27,14,49,-4,-71,-28,12,37,49,195,103,3,-32,147,6,43,119,151,41,6,24,-56,68,106,-15,8,10,24,1,5,23,-12,36,45,23,45,-31,-38,28,-12,-23,140,135,75,82,124,94,83,61,-33,8,16,4,35,7],[11,21,33,-8,-3,16,24,21,22,35,-6,30,-70,-144,-59,-72,24,3,-17,8,33,-16,17,7,11,-19,-21,-14,-19,-15,7,-12,-31,-10,-26,-48,-1,-48,-25,68,39,126,99,-13,-82,-39,-11,-99,-106,-46,-83,-75,-35,6,5,-22,3,-33,12,45,-16,21,-63,-12,15,24,102,121,8,-84,133,-61,-305,-154,-136,-163,-191,-208,-123,-114,-56,3,7,23,24,17,71,62,-37,6,-45,-131,-276,-292,-113,-106,-193,-168,-135,-153,-169,-123,-98,-87,-107,-115,-58,-138,-156,-39,-62,-26,9,-40,30,-8,-115,-58,-17,-108,-125,-208,-118,-62,-78,-102,-143,-87,59,-86,-58,133,62,-25,13,-171,-198,-158,-86,-102,-8,-4,-21,14,-39,-36,17,-27,-122,-137,-91,-151,-26,-127,-92,-52,70,-10,-50,67,0,72,70,-4,-73,-34,-179,-73,-12,25,73,119,-51,105,26,54,-53,-184,-139,-55,29,-84,-138,-41,13,16,-55,-33,-22,77,115,85,12,-62,-61,-23,-8,-27,20,92,92,65,50,42,-52,-39,-53,-63,-33,-18,-76,-24,-19,55,36,-36,-93,-56,31,177,53,-95,16,-80,165,9,13,215,201,79,135,46,12,-12,-165,-165,-96,31,64,8,44,82,30,-17,-145,-106,51,14,-35,20,-21,-55,12,117,86,80,107,46,142,86,29,-53,-102,-93,-46,-22,-20,66,72,43,36,13,-70,-77,-13,150,44,65,-39,-63,-9,62,152,51,49,-21,19,38,54,47,8,-35,-42,-13,57,66,50,114,34,42,-62,-27,158,95,47,-86,-54,111,43,189,-52,58,-31,-53,-49,-4,72,102,71,-21,-14,5,71,113,128,60,-29,-49,-25,-6,68,136,78,-197,-4,9,-20,6,42,132,-91,-126,-10,-17,115,164,57,82,69,64,48,71,77,15,-169,-144,-62,93,112,182,168,-10,-36,-87,115,-76,-3,78,-161,-53,9,71,139,199,52,46,-68,-71,103,99,68,10,-125,-169,24,173,122,85,45,77,-47,-27,-11,-74,-19,66,-97,26,101,75,181,146,12,-35,-91,-60,55,38,92,-19,-121,-162,20,128,65,1,96,69,-107,11,-2,75,198,-22,-11,-27,95,162,154,146,33,-29,-104,-90,76,89,140,-49,-140,-88,86,140,75,70,130,13,-15,-101,41,64,130,-13,57,26,125,108,118,13,-22,9,20,70,125,93,49,-72,-105,-55,132,113,12,84,102,-38,-114,-58,33,-8,66,-16,151,94,34,52,30,-13,-48,74,39,91,150,67,-39,-91,-32,13,67,59,68,138,156,-34,-18,24,-35,11,66,29,102,18,10,4,14,49,7,-15,81,115,40,-33,-64,-123,-143,-104,18,81,29,21,76,55,124,151,-9,27,142,67,62,38,53,-26,35,20,-105,-27,-45,23,21,-51,-87,-139,-130,-53,-19,5,-118,-151,85,204,49,140,20,59,124,36,50,41,34,-11,36,-65,-101,-36,-18,-17,-14,-40,-48,-118,-7,16,21,-2,-102,-109,126,112,36,45,2,0,65,109,-24,94,50,52,19,-77,-54,-54,-27,-93,-74,-25,-14,-112,-59,-53,-16,24,55,32,55,73,160,22,14,13,67,115,90,186,169,83,69,69,29,-7,16,42,-32,32,18,-70,23,18,-34,-2,114,143,37,28,203,11,-17,13,-59,-33,45,48,107,109,5,98,65,-27,98,180,92,123,-35,-58,-124,-49,-55,131,95,140,-100,48,116,31,19,27,-95,-136,-112,-42,-120,-106,-103,9,-57,69,41,33,52,49,-85,-179,-153,-56,41,-13,47,-63,-132,-21,-50,15,-16,25,-23,-30,-67,-137,-10,-131,12,39,-95,-140,-76,6,15,-24,-176,-207,-107,-135,-189,-87,-67,60,-41,-40,-98,-27,29,-11,-31,-12,-141,-109,-149,-214,-167,-191,-170,-216,-353,-182,-285,-169,-164,-35,-99,-159,-94,54,72,-63,-84,30,22,0,-8,-22,-6,-3,-18,6,-11,44,-11,-53,-90,-101,-79,-99,-285,-180,-146,-114,-109,-84,-89,107,104,41,26,-8,-6,-33],[7,-28,24,7,7,-17,16,-21,-24,3,-18,14,10,-65,-81,-21,15,7,3,10,31,27,8,10,-15,13,10,-35,17,30,1,-20,-13,33,24,44,62,41,-63,17,17,98,-38,46,40,32,-44,-76,-134,-20,-8,-37,18,-34,-13,15,23,13,14,42,81,55,-89,-7,-80,-188,-191,-196,-99,69,-103,20,68,-31,-37,-1,-2,18,-39,84,23,-7,5,-32,15,-12,-49,23,117,-1,-28,69,111,47,86,39,63,188,208,148,169,63,-25,28,130,27,-11,59,105,83,114,24,-16,23,-16,61,-28,-112,-132,7,38,85,84,112,118,74,9,-7,1,3,-23,-57,-102,31,74,59,-38,-51,226,120,-22,12,30,137,-55,12,15,47,37,20,18,13,-88,-118,-88,21,33,32,19,-38,-65,-57,-37,-42,-78,-14,113,177,14,40,-144,10,0,-30,-36,-8,36,61,-56,-59,-106,-21,-58,-70,-104,-19,31,-17,3,78,61,-84,-57,65,161,107,38,25,-100,42,-85,7,-7,-9,48,-42,-31,-54,-9,-5,50,16,-14,-27,-8,0,-2,-29,-40,-56,66,49,102,92,136,-7,2,36,-62,20,6,7,-3,-59,-4,1,84,86,118,137,81,33,35,48,7,-48,9,37,129,83,12,20,-22,102,69,143,-57,-51,-10,33,63,-7,-1,105,111,141,186,89,126,67,60,70,17,-93,14,46,180,77,-136,-85,20,43,128,114,-43,14,22,48,42,58,86,94,138,208,183,140,175,67,51,12,20,-96,-10,24,112,-88,-97,-64,45,214,142,124,-138,-81,21,-7,-68,-33,63,52,18,44,28,72,63,22,111,56,0,-75,5,29,107,-81,17,-161,-7,151,73,-36,-125,-80,-19,-19,-40,-53,51,-61,-63,-21,-22,13,-45,4,149,73,14,-35,-12,-12,17,-141,-157,-135,42,9,31,-84,-177,-9,42,19,25,-15,-71,-128,-56,-60,-72,-69,-35,-18,75,57,-9,16,-88,-78,70,-208,-184,-54,38,14,61,13,-121,25,86,-5,-26,0,-87,-46,-16,-71,-83,59,-56,16,35,93,37,69,15,-51,137,-81,-257,-48,62,31,90,-78,58,119,62,-42,-34,-107,-93,-90,-76,-130,-86,6,-49,-31,17,78,43,56,83,15,109,-136,-177,-37,42,49,114,-6,48,63,20,6,-66,-61,-53,-17,-51,-115,-111,-152,-112,-98,16,55,68,31,68,-11,-21,-260,-192,18,15,53,-52,72,-16,-17,43,-10,-49,-70,-75,-18,13,-137,-178,-104,-93,-18,0,30,8,40,20,-24,42,-119,-97,130,97,-7,50,-18,-3,73,31,43,13,-35,27,60,-16,-99,-79,1,62,17,7,23,26,24,30,-122,-59,-154,-74,-28,7,131,81,-12,16,29,-20,-21,33,17,-69,-60,20,-22,-31,57,29,86,60,51,15,13,-25,-66,18,-133,33,-80,-8,127,-61,-13,0,0,-31,-53,-7,-60,-77,-50,-87,-9,13,19,46,137,46,6,-12,-42,-108,-125,-15,-38,60,-69,4,-14,-77,-112,-43,-55,-30,-28,-36,-63,-111,-45,-51,25,-6,33,98,61,43,-44,-111,-149,-135,-79,-130,-108,48,20,-24,33,-102,-109,-99,-71,-37,-67,-45,-64,-54,-57,53,58,47,38,93,47,5,-91,-117,-116,-21,-22,-101,-151,-62,4,25,13,66,19,-30,-19,-33,-76,-115,-82,79,78,73,59,48,50,18,3,-26,-183,-238,-122,-70,-3,-22,-95,-73,16,-19,-23,65,33,77,85,42,10,-26,-25,50,103,116,99,82,45,-41,-9,-243,-147,-204,-191,45,45,85,-11,119,15,1,24,-12,38,50,89,103,129,78,55,119,113,214,190,60,-27,60,-35,-180,-218,-136,50,32,118,70,76,80,31,-22,-33,-28,33,-107,-92,-80,89,61,87,183,161,136,222,186,159,196,141,-1,-53,-100,-59,4,42,64,39,11,7,-34,12,7,3,-3,14,90,112,104,-8,126,87,6,-10,137,20,39,101,72,42,-12,-51,14,55,-7,-25,16,-21],[1,17,-4,-5,36,22,21,30,-12,-31,-21,15,62,-29,-86,-38,5,32,23,-33,24,3,0,10,30,-5,11,-1,31,18,-17,19,25,9,-52,-16,-33,-67,4,43,37,95,15,-66,-89,-53,-38,-93,-60,70,41,76,12,-2,20,35,14,-29,-27,-85,-36,9,-77,-100,-145,-123,-202,-332,-265,-294,-316,-345,-299,-186,-27,142,129,213,102,6,-93,-71,-26,35,6,23,-144,-102,8,-112,-138,-95,-106,-148,1,-117,-214,-113,-30,-42,-112,-19,27,13,178,238,107,51,-16,29,29,21,-29,9,-119,15,2,12,-23,64,37,-4,-17,-22,-42,-68,-72,-105,-90,-115,-104,-107,-76,70,0,155,246,251,80,27,26,-20,-25,-39,-57,-38,-132,-5,-25,-62,-6,-78,-62,-30,-70,-112,-73,9,-12,21,66,-6,-22,-19,167,188,-11,13,-12,-69,37,148,156,58,-5,-43,12,-53,-107,-69,-38,-7,-82,-33,-65,-85,-91,-61,53,38,83,110,186,106,-46,-46,-10,-70,111,223,143,91,71,44,8,-78,-48,-21,-18,-35,-19,-62,-105,-218,-143,-119,-32,27,-2,44,84,110,-25,-47,-115,142,145,179,175,159,120,56,-27,-44,-2,-48,-9,18,-58,-113,-114,-237,-131,-89,94,83,28,104,106,186,28,-42,40,75,90,118,220,108,66,-1,-18,-27,39,43,21,108,131,-73,-201,-174,-31,36,245,198,132,119,207,143,-85,-100,56,69,127,77,56,77,28,40,9,45,112,182,174,209,133,-101,-148,-169,13,129,166,178,201,159,130,89,-82,-76,29,125,86,96,112,79,21,86,16,81,139,185,194,200,31,-76,-192,-93,89,218,97,127,99,112,95,127,200,22,-9,126,34,149,22,56,18,99,146,171,188,177,85,91,21,-73,-157,-42,67,115,138,20,68,-14,91,-60,95,77,36,140,128,131,21,48,74,76,94,162,187,68,30,-12,0,-64,-92,-54,-21,73,79,-5,-15,-112,47,-159,65,-130,2,150,148,103,-10,107,51,12,104,117,-15,-87,-41,-30,3,-69,-121,-77,-80,20,86,-101,-31,83,6,-129,-181,-114,21,-49,122,70,26,189,121,71,36,12,-100,-163,-47,-70,-44,-72,-80,9,75,72,87,-56,76,19,-90,-105,-84,-132,-14,-67,92,164,192,142,77,131,91,6,-77,-86,-65,-41,2,11,39,158,226,139,126,119,123,112,13,-121,-34,-64,-9,-16,8,132,180,81,-19,32,16,-124,-101,-139,-99,-83,-19,36,114,219,190,40,111,183,184,104,-142,-287,-134,-23,48,27,75,-3,12,19,-98,-137,-118,-139,-145,-141,-140,-120,21,82,147,123,49,-52,33,68,-10,-82,-118,-221,-179,-153,-3,-23,87,-115,33,3,-78,-52,-115,-188,-154,-138,-186,-139,49,84,69,89,11,-62,-62,-26,-116,-131,-61,-266,-135,-128,-2,-38,49,-67,-9,73,-55,-20,-60,-135,-148,-130,-138,-61,-3,43,61,32,-55,-47,13,-41,-161,-209,-51,-197,-93,14,15,18,25,47,8,-35,-13,-32,-45,-61,-77,-29,-90,-33,-44,66,82,21,-23,14,0,-57,-131,-168,-29,54,-156,-9,18,1,-8,72,-3,-58,-62,-16,47,57,-1,42,0,1,-28,93,29,23,2,122,-4,-44,-79,-21,28,101,-22,9,1,-18,88,211,191,-13,-34,-56,98,35,72,29,-20,-110,4,68,28,154,74,155,140,-14,-87,69,-43,45,-32,-1,-31,-26,30,84,12,41,-12,118,111,68,121,-25,-64,-99,-38,1,102,138,78,230,146,95,74,40,-62,-79,-63,-21,18,-1,-6,-180,-211,-136,-64,-56,-6,69,83,-49,25,-34,12,50,127,70,143,221,111,158,167,107,-74,-107,-38,-25,7,21,-34,51,31,-20,-60,-155,-84,67,-28,-22,-81,-40,-67,23,21,-48,-13,77,10,89,151,12,-84,-26,1,-3,7,3,18,-4,46,99,-12,68,20,59,-122,-24,42,77,73,-14,41,219,71,15,39,95,134,96,6,-7,-33,19],[27,30,-11,28,28,-28,-2,0,0,20,-16,-20,33,6,-105,-68,2,15,19,6,24,2,-18,29,-8,-13,-32,17,29,-28,33,18,-17,28,62,84,107,108,60,9,-29,-37,-35,93,54,52,-86,-120,-192,-36,-69,-59,-5,-22,-25,-32,18,24,10,84,152,84,70,136,175,213,171,205,269,79,-57,-21,-155,-274,-78,-119,-102,-252,-196,-137,2,3,1,-11,-5,29,98,98,13,148,112,156,273,308,263,199,337,71,-94,41,-86,-182,-166,-171,-205,-170,-102,-27,-92,-30,-46,9,-8,-2,95,-18,23,84,96,61,173,187,233,100,144,117,132,116,21,-28,